tree
version=v4
num_class=1
num_tree_per_iteration=1
label_index=0
max_feature_idx=54
objective=regression
feature_names=return_1 return_3 return_7 hl_ratio oc_ratio ma_7 ema_7 close_ma_7_diff ma_25 ema_25 close_ma_25_diff ma_99 ema_99 close_ma_99_diff ma_99_slope_5 ma_7_ma_25_ratio rsi_14 rsi_6 atr_14 atr_pct atr_change bb_upper bb_middle bb_lower bb_width bb_position macd macd_signal macd_hist macd_hist_change stoch_k stoch_d momentum_5 momentum_10 momentum_20 volume_ratio volume_ma_5 volume_change volume_spike_ratio price_volume_corr volatility_regime price_position dist_to_recent_high_20 dist_to_recent_low_20 price_in_bband_percentile bb_width_pct dist_to_high dist_to_low market_regime rebound_strength oversold_recovery bear_trap volume_price_divergence dist_to_support_atr predicted_rr
feature_infos=[-0.10325020551681519:0.090969204902648926] [-0.16209715604782104:0.12877571582794189] [-0.15816324949264526:0.17334640026092529] [0:0.30292358994483948] [-0.10325019806623459:0.090969562530517578] [15708.271484375:68572.5625] [15706.5732421875:68554.6484375] [-0.12768632173538208:0.10323408246040344] [15727.1396484375:68311.7421875] [15740.482421875:68129.390625] [-0.17627114057540894:0.128742516040802] [15858.0576171875:67579.1015625] [15866.1533203125:67438.5078125] [-0.22479459643363953:0.15165063738822937] [-0.01222609169781208:0.010358095169067383] [0.90913546085357666:1.0777466297149658] [0.90427130460739136:100] [0:100] [6.0502233505249023:2739.1357421875] [0.00035732059041038156:0.0756864994764328] [-0.78790581226348877:6.6615700721740723] [15774.2861328125:69898.1640625] [15721.259765625:68445.5] [15258.9287109375:67979.265625] [0.0011544453445822001:0.25932639837265015] [-0.55240923166275024:1.5494223833084106] [-1687.2138671875:1231.6492919921875] [-1505.801025390625:1106.71337890625] [-664.12481689453125:589.8560791015625] [-285.865478515625:250.72630310058594] [0:100] [1.182709813117981:98.77386474609375] [-0.16985911130905151:0.15899133682250977] [-0.18096369504928589:0.16818583011627197] [-0.20007288455963135:0.19525289535522461] [0:11.963729858398438] [308.72219848632812:76892.25] [-1:inf] [0:11.963729858398438] [-inf:inf] [0.11075783520936966:2.3082284927368164] [0:1] [0:0.27134042978286743] [0:0.28331491351127625] [-0.55240923166275024:1.5494223833084106] [4.1166529740621627e-08:1.0131614544661716e-05] [0:0.39803189039230347] [0:0.32121241092681885] [-1:1] [0:10.262325286865234] [-74.547744750976562:78.838935852050781] [0:1] [-0.96656256914138794:0.61893731355667114] [0:12.95307445526123] [7.1052488106438068:9.5431714449186025]
tree_sizes=2833 2924 2895 2912 2897 2891 2934 2901 2919 2929 2956 2942 2924 2930 2930 2923 2919 2946 2944 2937 2914 2941 2892 2952 2924 2942 2948 2944 2943 2959 2951 2920 2882 2918 2936 2915 2920 2929 2922 2917 2946 2910 2920 2912 2917 2866 2891 2865 2906 2885 2917 2912 2914 2938 2918 2906 2884 2903 2910 2848 2926 2919 2892 2900 2870 2923 2898 2887 2919

Tree=0
num_leaves=31
num_cat=0
split_feature=19 19 19 13 19 23 19 26 13 19 27 20 53 13 13 45 19 14 20 12 5 36 14 12 24 12 47 13 3 19
split_gain=1.0809e+06 209466 170005 40018.6 33659.5 33658 30475.4 32251.1 26754.5 21732.3 25327.6 16096.6 15893.8 14367.9 13196.9 13190.2 12327.8 11528.4 11093.2 10516.2 10505.2 10343.7 10003.5 10040.8 9821.82 8387.44 8066.16 8044.96 8018.72 7850.1
threshold=0.0043337459210306415 0.002718522679060698 0.0060322366189211616 -0.014656296931207178 0.0034240855602547531 31653.218750000004 0.0087080239318311232 -139.59727478027341 -0.0065261889249086371 0.0020762857748195533 -21.158285140991207 0.26901191473007208 2.8376916646957402 0.0051539440173655757 0.0053244393784552821 9.5699707713947659e-08 0.0035484695108607416 0.00059691982460208248 0.036172127351164825 57702.593750000007 16553.220703125004 20043.166992187504 -0.00097273019491694857 60913.445312500007 0.020831583067774776 31075.451171875004 0.018930451013147834 -0.038550188764929764 0.0055832918733358392 0.0015950644155964258
decision_type=2 2 2 2 2 2 2 2 2 2 2 2 2 2 2 2 2 2 2 2 2 2 2 2 2 2 2 2 2 2
left_child=1 9 5 16 12 20 7 22 -7 14 -11 25 -5 -12 15 -1 -3 -16 -6 21 -2 28 -4 -24 27 -9 -10 -22 -8 -17
right_child=2 3 6 4 18 8 19 11 26 10 13 -13 -14 -15 17 29 -18 -19 -20 -21 24 -23 23 -25 -26 -27 -28 -29 -30 -31
leaf_value=16.473325826977167 16.858535456721683 16.908626061655152 16.296271919697162 16.44424973942948 16.304823597980203 16.311179956553826 16.068597569208986 16.076783988652313 16.270142598365254 16.848662764406416 16.519865322728052 16.220842878665781 16.610409894144361 16.728157302611532 16.676667323377469 16.862680691815189 16.581901561113213 17.152919573070243 16.421153687594767 16.274396797739925 16.907515047767742 16.124735179316183 16.04148268947878 16.89563863044464 16.419437900006727 15.954347524420983 16.10925811666338 16.26088461337508 15.872128984182872 16.726699133249621
leaf_weight=368 98 473 1533 4707 5646 2909 575 1898 896 1167 2721 816 2073 1190 182 1861 741 421 3217 204 49 515 777 36 1993 5318 5970 2621 5366 2470
leaf_count=368 98 473 1533 4707 5646 2909 575 1898 896 1167 2721 816 2073 1190 182 1861 741 421 3217 204 49 515 777 36 1993 5318 5970 2621 5366 2470
internal_value=16.3107 16.5415 16.1116 16.4327 16.4112 16.2372 16.0044 16.058 16.1841 16.7182 16.6442 16.0104 16.4951 16.5832 16.789 16.7607 16.7092 17.0092 16.347 15.9209 16.3462 15.9098 16.2211 16.0793 16.3354 15.9866 16.1303 16.2728 15.8911 16.7851
internal_weight=58811 27237 31574 16857 15643 14536 17038 10378 9775 10380 5078 8032 6780 3911 5302 4699 1214 603 8863 6660 4761 6456 2346 813 4663 7216 6866 2670 5941 4331
internal_count=58811 27237 31574 16857 15643 14536 17038 10378 9775 10380 5078 8032 6780 3911 5302 4699 1214 603 8863 6660 4761 6456 2346 813 4663 7216 6866 2670 5941 4331
is_linear=0
shrinkage=1


Tree=1
num_leaves=31
num_cat=0
split_feature=19 19 19 13 40 23 19 13 19 19 27 26 53 13 40 40 9 12 13 19 11 20 46 34 45 45 13 20 18 24
split_gain=975509 189043 153863 36116.8 33581 31505.1 30377.7 26541.4 24594.5 19613.4 22858.2 18968.4 14344.1 12967 12235 12129.1 16597.3 11469.6 11343.9 11125.8 10799.4 10011.6 9689.62 9314.37 8193 7881.36 7547.68 7302.35 7074.62 6772.29
threshold=0.0043337459210306415 0.002718522679060698 0.0061349750030785808 -0.014656296931207178 1.4859609603881838 31653.218750000004 0.0034240855602547531 -0.0070596439763903609 0.0076845781877636918 0.0020762857748195533 -21.158285140991207 -139.59727478027341 2.8376916646957402 0.0051539440173655757 0.9818868637084962 1.2619214057922366 18477.950195312504 56799.810546875007 0.0029275902779772882 0.0035484695108607416 31060.526367187504 0.036172127351164825 0.074727065861225142 0.008113741874694826 1.1044479464317193e-07 9.5699707713947659e-08 -0.035370877012610429 -0.0084402766078710539 34.975097656250007 0.021561888046562675
decision_type=2 2 2 2 2 2 2 2 2 2 2 2 2 2 2 2 2 2 2 2 2 2 2 2 2 2 2 2 2 2
left_child=1 9 5 19 8 15 12 -7 11 14 -11 26 -5 -12 18 22 -17 -10 25 -3 -6 -8 -2 -18 -16 -1 -4 -14 -20 -21
right_child=2 3 4 6 20 7 21 -9 17 10 13 -13 27 -15 24 16 23 -19 28 29 -22 -23 -24 -25 -26 -27 -28 -29 -30 -31
leaf_value=0.18569700645931653 -0.036926423975971547 0.56894501290317567 0.18035106453489752 0.12778750683994386 0.013704926202700357 0.0018037552779865092 -0.0046673235434971502 -0.17507551326157522 -0.39749266546587059 0.51197988086387247 0.19962232133694668 -0.29530731731341547 0.20756113559737499 0.39749970399532003 -0.074920408803132152 0.76850945891118527 0.021833588992806692 -0.089931168610560178 0.86692791603713393 0.18624488931785571 -0.20178887541289378 0.10584625563461809 0.37244457754473026 0.31839157817734254 0.35239213237149081 0.46914277267366949 -0.13488452289690414 0.39842997108111688 0.56197722641430847 0.57452811089114864
leaf_weight=267 3383 473 235 4707 859 2989 5646 7302 7441 1167 2721 4707 1225 1190 129 102 931 316 251 603 1799 3217 151 370 860 3010 989 848 785 138
leaf_count=267 3383 473 235 4707 859 2989 5646 7302 7441 1167 2721 4707 1225 1190 129 102 931 316 251 603 1799 3217 151 370 860 3010 989 848 785 138
internal_value=0.000890926 0.220142 -0.188244 0.116775 -0.294778 -0.0738884 0.096387 -0.123701 -0.326358 0.388008 0.317778 -0.24971 0.176051 0.25983 0.455271 0.0299447 0.154326 -0.384963 0.491642 0.379491 -0.132147 0.0354458 -0.0194349 0.106174 0.296656 0.446048 -0.0743614 0.28564 0.63586 0.258557
internal_weight=58811 27237 31574 16857 16346 15228 15643 10291 13688 10380 5078 5931 6780 3911 5302 4937 1403 7757 4313 1214 2658 8863 3534 1301 989 3277 1224 2073 1036 741
internal_count=58811 27237 31574 16857 16346 15228 15643 10291 13688 10380 5078 5931 6780 3911 5302 4937 1403 7757 4313 1214 2658 8863 3534 1301 989 3277 1224 2073 1036 741
is_linear=0
shrinkage=0.05


Tree=2
num_leaves=31
num_cat=0
split_feature=18 18 18 11 11 9 18 40 11 13 18 11 18 13 27 12 13 47 18 11 15 11 18 40 28 36 27 45 13 11
split_gain=820265 117838 107210 57463.4 49193.1 48961.4 22084 21373.9 19598.4 19189.2 18693.9 16219.4 19442.1 15092.5 13419.9 13497.1 13109.7 12757.7 12304.7 11131 10143.7 9942.31 9054.03 8993.88 8085.78 8407.19 7935.6 7524.33 8717.57 6927.27
threshold=154.75683593750003 66.432270050048842 265.39273071289068 38618.398437500007 57333.841796875007 24888.898437500004 125.79991149902345 1.4179254174232485 40871.302734375007 -0.0034055309370160099 107.10365676879884 24868.884765625004 27.114048004150394 -0.018997483886778351 -91.66277694702147 30228.131835937504 0.024227306246757511 0.016953301616013054 203.45214843750003 58020.580078125007 1.0032129287719729 24868.884765625004 50.143205642700202 1.509804964065552 88.640129089355483 1772.3192138671877 -21.851473808288571 9.5699707713947659e-08 0.0038874446181580429 42486.693359375007
decision_type=2 2 2 2 2 2 2 2 2 2 2 2 2 2 2 2 2 2 2 2 2 2 2 2 2 2 2 2 2 2
left_child=1 11 3 7 8 10 14 18 23 24 13 12 -1 -3 -7 -16 -15 -10 21 -11 -8 -2 -14 -4 25 -5 -24 28 -13 -22
right_child=2 5 4 9 -6 6 20 -9 17 19 -12 27 22 16 15 -17 -18 -19 -20 -21 29 -23 26 -25 -26 -27 -28 -29 -30 -31
leaf_value=0.58197238188642963 -0.33396327425859534 0.36682747111363551 -0.40529751301413974 0.20072911708309515 -0.063169379786175844 0.61659982037894867 0.060647128860711767 -0.0069066265859153708 -0.12422624760956476 -0.095270962197039052 -0.079993018839192701 0.11015608072280886 0.33267811672911879 0.038347957526570935 0.1557471273445008 0.29407552417385063 0.43084792110986181 -0.2897904048083827 -0.33275227364525356 0.072822596804498124 0.17288623860923469 -0.11753507989020018 0.37111130821955418 -0.21483578232922748 0.77074153045328653 0.024749039636163043 0.13466268394820433 0.4538795928939357 1.0069834693272908 0.50671245831858058
leaf_weight=523 731 443 4788 879 2405 238 3159 1091 1485 5736 2526 280 2076 3905 3078 4129 225 5375 2409 1189 606 1936 452 712 41 2978 1651 3526 30 209
leaf_count=523 731 443 4788 879 2405 238 3159 1091 1485 5736 2526 280 2076 3905 3078 4129 225 5375 2409 1189 606 1936 452 712 41 2978 1651 3526 30 209
internal_value=0.000846383 0.203145 -0.171516 -0.0858714 -0.270068 0.132291 0.196395 -0.207688 -0.310326 -0.0164598 0.0291776 0.356818 0.294573 0.0894805 0.247197 0.234998 0.0597311 -0.25395 -0.250842 -0.0664098 0.101222 -0.176856 0.258605 -0.380641 0.0722791 0.0648544 0.185483 0.433116 0.196946 0.258493
internal_weight=58811 27056 31755 16990 14765 18518 11419 6167 12360 10823 7099 8538 4702 4573 7445 7207 4130 6860 5076 6925 3974 2667 4179 5500 3898 3857 2103 3836 310 815
internal_count=58811 27056 31755 16990 14765 18518 11419 6167 12360 10823 7099 8538 4702 4573 7445 7207 4130 6860 5076 6925 3974 2667 4179 5500 3898 3857 2103 3836 310 815
is_linear=0
shrinkage=0.05


Tree=3
num_leaves=31
num_cat=0
split_feature=19 19 19 13 23 19 19 26 13 19 13 20 53 26 13 21 19 14 24 24 13 5 12 36 49 9 11 47 14 12
split_gain=799506 154823 125552 31182.7 25096.3 24728.1 23742.6 26594.1 20518.8 16398 14453.1 13228.5 13183 11733.7 10601.9 9817.14 9803.65 8949.36 8705.15 8614.11 8562.08 8519.21 8203.06 8367.67 8384.6 7552.67 7408.82 7363.58 7357.27 7272.28
threshold=0.0043337459210306415 0.002718522679060698 0.0060322366189211616 -0.013361932709813116 31653.218750000004 0.0034240855602547531 0.0087080239318311232 -139.59727478027341 -0.007791784591972827 0.001875995774753392 0.0043478582520037898 0.26901191473007208 2.8376916646957402 -18.390931129455563 0.0067083959002047786 16637.036132812504 0.0035484695108607416 -0.0018634165171533821 0.025740013457834724 0.020831583067774776 -0.0081737581640481932 37622.138671875007 57702.593750000007 12309.479980468752 0.29298028349876409 16641.230468750004 20218.912109375004 0.007865276653319599 0.00059691982460208248 61171.875000000007
decision_type=2 2 2 2 2 2 2 2 2 2 2 2 2 2 2 2 2 2 2 2 2 2 2 2 2 2 2 2 2 2
left_child=1 9 4 16 15 12 7 17 -6 10 21 26 -5 -11 20 -2 -3 -4 -7 -17 -15 25 23 24 -8 -1 -9 -23 -12 -19
right_child=2 3 6 5 8 18 22 11 -10 13 28 -13 -14 14 -16 19 -18 29 -20 -21 -22 27 -24 -25 -26 -27 -28 -29 -30 -31
leaf_value=0.8334589540747539 0.55186102428797923 0.48617752845477896 0.051459038588965028 0.11039103827961463 0.010550326345580611 0.018233053903021938 0.28753284672473339 -0.10821235959508507 -0.15247071061198791 0.42081222061975493 0.40741475755677509 -0.067671921387812417 0.26261990254735806 0.4769117518904592 0.40534800698660406 -0.037063103719831139 0.22161613475283268 -0.17373168679285256 0.25789960318195732 0.10012357971680741 0.20323104748609935 -0.28635014280872911 -0.024026038747408666 -0.24177311743067909 -0.3834693780154903 0.40403112578315714 -0.29500234354191857 0.28452632954174822 0.80834742784406988 0.34915875923420703
leaf_weight=106 89 579 948 4644 2647 8301 47 577 7128 1575 170 816 2050 311 1041 2669 886 1328 397 2003 3524 76 204 1482 4927 3007 6639 220 350 70
leaf_count=106 89 579 948 4644 2647 8301 47 577 7128 1575 170 816 2050 311 1041 2669 886 1328 397 2003 3524 76 204 1482 4927 3007 6639 220 350 70
internal_value=0.000804064 0.199293 -0.170421 0.105749 -0.0624754 0.0847691 -0.262514 -0.215231 -0.108326 0.351208 0.431734 -0.258488 0.15701 0.302163 0.263838 0.0316618 0.326177 -0.0671319 0.0291721 0.0217522 0.225425 0.39428 -0.336193 -0.346058 -0.377129 0.418653 -0.280066 0.13795 0.677273 -0.14755
internal_weight=58811 27237 31574 16857 14536 15392 17038 10378 9775 10380 3929 8032 6694 6451 4876 4761 1465 2346 8698 4672 3835 3409 6660 6456 4974 3113 7216 296 520 1398
internal_count=58811 27237 31574 16857 14536 15392 17038 10378 9775 10380 3929 8032 6694 6451 4876 4761 1465 2346 8698 4672 3835 3409 6660 6456 4974 3113 7216 296 520 1398
is_linear=0
shrinkage=0.05


Tree=4
num_leaves=31
num_cat=0
split_feature=18 18 18 11 11 9 18 18 11 13 11 18 13 20 13 27 8 14 47 11 53 11 12 18 14 36 47 11 8 45
split_gain=671094 100611 82374.1 46814.3 41370.7 39978.8 21447.5 16728.8 16482.2 15934.9 13893 16300.2 13255.3 12854.9 11827.3 11737.2 11643.5 11028.5 11023 9080.2 8880.68 8758.43 7575.86 7391.53 9675 7210.53 7136.07 7099.91 7181.77 6735.68
threshold=158.71450042724612 66.432270050048842 265.39273071289068 38618.398437500007 57333.841796875007 24888.898437500004 125.79991149902345 107.10365676879884 40871.302734375007 -0.0034055309370160099 24868.884765625004 27.114048004150394 -0.018997483886778351 0.26901191473007208 0.024227306246757511 -91.66277694702147 29814.934570312504 -4.0591323340777301e-05 0.019096088595688347 58020.580078125007 3.634628534317017 40582.070312500007 42693.386718750007 50.143205642700202 3.8517426219186752e-05 7751.1542968750009 0.016367240808904174 31060.526367187504 31745.329101562504 9.5699707713947659e-08
decision_type=2 2 2 2 2 2 2 2 2 2 2 2 2 2 2 2 2 2 2 2 2 2 2 2 2 2 2 2 2 2
left_child=1 10 3 13 8 7 15 12 27 17 11 -1 -3 26 -14 -7 -17 21 22 -11 -8 -5 -10 24 -13 -25 -2 28 -4 -12
right_child=2 5 4 9 -6 6 20 -9 18 19 29 23 14 -15 -16 16 -18 -19 -20 -21 -22 -23 -24 25 -26 -27 -28 -29 -30 -31
leaf_value=0.52784646067689989 -0.10688814881005658 0.34109231109812893 -0.21964428083454549 -0.10086949692085755 -0.054661879770596548 0.56973295631278464 0.05269486643890911 -0.076541346283689082 0.2177099843885725 -0.091569677858165596 0.16946422064887179 0.1962228338201718 0.032982880003984645 0.021087571129323992 0.40579187447639803 0.13120640073589496 0.26232289923255381 -0.13847687132038944 -0.26649520195380266 0.0614151992517806 0.23225533856604572 0.13351892410005126 -0.15294480149518286 0.13832125149035465 0.4123952660789596 0.47888743581040905 -0.25077551786161195 -0.36601322067841213 0.68080179237801097 0.4125602536059555
leaf_weight=523 1090 443 595 466 2405 238 3682 2659 151 5513 310 1092 3905 615 225 2719 4488 573 5125 1177 847 2754 1584 1934 984 169 4114 4882 23 3526
leaf_count=523 1090 443 595 466 2405 238 3682 2659 151 5513 310 1092 3905 615 225 2719 4488 573 5125 1177 847 2754 1584 1934 984 169 4114 4882 23 3526
internal_value=0.000763862 0.179494 -0.158849 -0.0813648 -0.244399 0.116009 0.172072 0.0231861 -0.281318 -0.0182371 0.322301 0.264692 0.0811732 -0.19509 0.0532933 0.224265 0.212856 0.0636327 -0.229618 -0.0646544 0.0862757 0.0995981 -0.120686 0.231758 0.298686 0.16569 -0.220638 -0.345801 -0.186133 0.392915
internal_weight=58811 27744 31067 16302 14765 19206 11974 7232 12360 10483 8538 4702 4573 5819 4130 7445 7207 3793 6860 6690 4529 3220 1735 4179 2076 2103 5204 5500 618 3836
internal_count=58811 27744 31067 16302 14765 19206 11974 7232 12360 10483 8538 4702 4573 5819 4130 7445 7207 3793 6860 6690 4529 3220 1735 4179 2076 2103 5204 5500 618 3836
is_linear=0
shrinkage=0.05


Tree=5
num_leaves=31
num_cat=0
split_feature=18 18 12 18 9 18 18 40 11 13 18 13 26 12 12 18 13 9 40 13 24 47 45 3 9 13 11 28 27 18
split_gain=598576 97661.4 60724.1 46196.8 34425 28924.5 22490.7 22287.4 21086.6 16484.7 16208.4 15559.6 14480.3 13069.6 12559.1 13041.9 11554.6 11054.7 8786.1 8769.71 8079.24 7928.56 12104.6 7858.18 7848.72 7278.39 7259.95 7173.48 6721.2 9151.95
threshold=174.55803680419925 61.907226562500007 38610.732421875007 285.72544860839849 24888.898437500004 124.5073928833008 107.10365676879884 1.5357795953750613 57333.841796875007 -0.002363563515245914 229.98535156250003 -0.018483678810298439 52.506250381469734 41604.832031250007 25891.364257812504 27.114048004150394 -0.013654970563948153 29825.010742187504 0.98619207739830028 0.030136774294078354 0.021370303817093376 0.011601032689213754 2.4340531012967409e-07 0.0032811133423820142 58691.546875000007 -0.030386435799300667 22726.796875000004 0.43623432517051702 4.4539716243743905 43.789272308349616
decision_type=2 2 2 2 2 2 2 2 2 2 2 2 2 2 2 2 2 2 2 2 2 2 2 2 2 2 2 2 2 2
left_child=1 14 7 9 6 16 11 10 -5 23 -2 26 -13 20 15 21 -6 -18 -16 25 -7 22 -1 -4 -11 -8 -3 -23 -17 -30
right_child=2 4 3 8 5 13 19 -9 -10 24 -12 12 -14 -15 18 28 17 -19 -20 -21 -22 27 -24 -25 -26 -27 -28 -29 29 -31
leaf_value=0.098320740281383767 -0.20435558755521843 0.26948039648788319 0.14881258544693796 -0.24303374884844986 0.42672113328983352 -0.026038779920071926 0.14381199675883152 -0.054080615160524731 -0.056042723992563374 -0.12286407449488734 -0.3537449137937631 0.015272657628656126 0.24171289707008459 0.1549401169972569 0.42963590145860675 0.17305073466729551 0.11838546101995771 0.24538366872032136 0.22193547363505234 0.17599077893161075 0.13726590770071953 0.92558088298444163 0.75534130144372302 -0.0084731104840059281 0.016890704166443594 -0.14255070122399605 0.79294590964913381 0.35181929664051331 0.48096741984287905 0.21139926495645486
leaf_weight=207 2805 385 1061 6729 592 2984 244 1032 1943 5221 5148 3881 863 2892 2506 2417 2768 4498 639 283 1015 143 106 3157 1244 2449 80 88 504 839
leaf_count=207 2805 385 1061 6729 592 2984 244 1032 1943 5221 5148 3881 863 2892 2506 2417 2768 4498 639 283 1015 143 106 3157 1244 2449 80 88 504 839
internal_value=1.98637e-05 0.154193 -0.165268 -0.115401 0.103105 0.148739 0.020873 -0.272689 -0.201138 -0.0458037 -0.301056 0.0835203 0.0564653 0.0739678 0.311486 0.255988 0.21431 0.197003 0.387435 -0.0887806 0.0154101 0.48481 0.320826 0.0310907 -0.0959724 -0.116605 0.359539 0.707005 0.222882 0.312563
internal_weight=58723 30383 28340 19355 22934 14749 8185 8985 8672 10683 7953 5209 4744 6891 7449 4304 7858 7266 3145 2976 3999 544 313 4218 6465 2693 465 231 3760 1343
internal_count=58723 30383 28340 19355 22934 14749 8185 8985 8672 10683 7953 5209 4744 6891 7449 4304 7858 7266 3145 2976 3999 544 313 4218 6465 2693 465 231 3760 1343
is_linear=0
shrinkage=0.05


Tree=6
num_leaves=31
num_cat=0
split_feature=19 19 19 13 40 19 27 40 13 15 40 20 8 19 22 13 5 14 47 13 14 54 45 18 45 36 19 13 21 24
split_gain=577807 132396 73933.7 32766.6 25031.7 23587.1 23410.7 20402.1 19771.4 15878.1 13231.1 12319.5 12181.6 10628.7 10567.2 9763.52 9667.06 8847.79 8774.8 8534.6 7844.89 7639.96 6905.49 6652.82 6534.62 6513.66 9804.64 6475.93 6199.86 6164.1
threshold=0.0046292862389236697 0.0030350290471687917 0.0067220847122371205 -0.015417246147990225 1.4859609603881838 0.0021089792717248206 -21.158285140991207 1.5824159383773806 -0.0081737581640481932 1.0029820799827578 0.98619207739830028 0.28450685739517217 31966.633789062504 0.0035078161163255577 60259.880859375007 0.0093607995659112948 18358.035156250004 -9.4066381279844777e-05 0.029149370267987255 0.0029275902779772882 -0.00055230988073162724 7.6332935868606873 1.2209305566557307e-07 37.767787933349616 6.1276796259335253e-07 4482.4863281250009 0.0035078161163255577 0.030136774294078354 32492.263671875004 0.017525876872241501
decision_type=2 2 2 2 2 2 2 2 2 2 2 2 2 2 2 2 2 2 2 2 2 2 2 2 2 2 2 2 2 2
left_child=1 5 7 20 14 10 -7 8 17 15 19 13 27 29 18 -8 -9 -2 -4 21 25 -1 -12 -21 -15 26 -3 -10 -6 -5
right_child=2 3 4 11 28 6 9 16 12 -11 22 -13 -14 24 -16 -17 -18 -19 -20 23 -22 -23 -24 -25 -26 -27 -28 -29 -30 -31
leaf_value=0.35465112902018953 0.0090474832478615007 0.54765590795315811 -0.22511467863267054 0.07246446188278198 0.028919876305663863 0.36437314496068712 0.10388821539337059 0.69501582239545989 -0.08016385113431708 0.38326943626414672 -0.098162100899420429 0.19667954061962731 -0.17823030457884909 -0.023138089784999535 0.095556121390393906 0.28817143094556774 0.076751261706664867 -0.21825905654680089 -0.31977362373796314 0.68861872600501073 -0.11862948913742039 -0.2291043143261943 0.24460660513897478 0.42332915852906849 0.078109621367076276 0.49010093046796571 0.13943593581089844 0.16646513899918214 -0.15200385937314664 0.28874150898578116
leaf_weight=3360 3893 200 3770 4131 689 1933 4402 67 2300 727 178 1138 7048 7985 184 859 1122 481 6983 340 103 57 842 775 1991 436 556 301 1514 358
leaf_count=3360 3893 200 3770 4131 689 1933 4402 67 2300 727 178 1138 7048 7985 184 859 1122 481 6983 340 103 57 842 775 1991 436 556 301 1514 358
internal_value=1.88732e-05 0.151556 -0.16231 0.0583396 -0.249185 0.26847 0.213082 -0.0872678 -0.104129 0.164244 0.34749 0.0382811 -0.144102 0.0258195 -0.280157 0.133977 0.11159 -0.015949 -0.286586 0.384108 0.300018 0.344913 0.18479 0.504225 -0.00293117 0.336193 0.247431 -0.0516228 -0.095419 0.0897127
internal_weight=58723 30371 28352 16898 13140 13473 7921 15212 14023 5988 5552 15603 9649 14465 10937 5261 1189 4374 10753 4532 1295 3417 1020 1115 9976 1192 756 2601 2203 4489
internal_count=58723 30371 28352 16898 13140 13473 7921 15212 14023 5988 5552 15603 9649 14465 10937 5261 1189 4374 10753 4532 1295 3417 1020 1115 9976 1192 756 2601 2203 4489
is_linear=0
shrinkage=0.05


Tree=7
num_leaves=31
num_cat=0
split_feature=18 18 3 22 12 18 47 18 20 22 12 18 27 36 18 12 27 12 47 40 22 40 27 8 21 36 18 24 38 20
split_gain=489933 79420.5 52220.7 28186.3 21570.1 20091.9 19684.6 15389.4 15093.7 14385.4 13355.2 13763.6 14656.8 12572.4 12485.8 10950.9 10653.1 11469.2 10581.5 10548.5 9916.33 8101.81 7997.61 7772.83 7731.13 7462.84 7377.2 7238.24 7173.24 6955.24
threshold=174.55803680419925 68.203544616699233 0.0054919875692576179 24899.190429687504 40570.248046875007 124.5073928833008 0.014114174991846086 107.10365676879884 0.23025391995906833 58727.185546875007 25891.364257812504 43.789272308349616 -21.851473808288571 7998.4406738281259 355.45368957519537 41604.832031250007 -91.66277694702147 30228.131835937504 0.011601032689213754 1.5357795953750613 16647.046875000004 0.98619207739830028 46.272192001342781 19895.563476562504 61324.015625000007 1135.3635253906252 218.76855468750003 0.021370303817093376 0.33294509351253515 -0.0014048760058358309
decision_type=2 2 2 2 2 2 2 2 2 2 2 2 2 2 2 2 2 2 2 2 2 2 2 2 2 2 2 2 2 2
left_child=1 10 6 7 8 16 -2 19 -4 26 11 18 -13 -14 -6 27 -5 -18 20 22 -1 -12 -3 -21 -16 -20 -8 -7 -28 -9
right_child=2 3 4 5 14 15 9 29 -10 -11 21 12 13 -15 24 -17 17 -19 25 23 -22 -23 -24 -25 -26 -27 28 -29 -30 -31
leaf_value=0.55019746192154428 0.040534150011247348 0.010011491474524988 -0.30153775315471965 0.53295148314080298 -0.092956521325162828 -0.02531811264240634 -0.075676940547952987 -0.16958035138880242 -0.10870058440772366 0.019466110822924144 0.37219076796936695 0.35082094931159252 0.060203954492141658 0.5225303607524201 -0.24786448881002629 0.14159837027323816 0.10134816913720762 0.23160909777926691 0.82181315497260232 0.6034822850876691 0.12996705298377986 0.19506677081553214 0.18747141020144095 0.11514314740980412 0.041722993106767539 0.38040039343422061 0.011815135567136065 0.12924035479245807 -0.18842457586628306 -0.01482292010218079
leaf_weight=168 2787 3217 6543 216 4028 2986 3258 1259 1201 1811 3022 685 2320 157 2951 2892 2934 3985 107 151 854 821 791 177 250 911 491 1015 5020 1715
leaf_count=168 2787 3217 6543 216 4028 2986 3258 1259 1201 1811 3022 685 2320 157 2951 2892 2934 3985 107 151 854 821 791 177 250 911 491 1015 5020 1715
internal_value=1.79294e-05 0.1395 -0.149519 0.0868684 -0.213648 0.128352 -0.0776856 0.00726129 -0.271631 -0.108827 0.263664 0.211443 0.146117 0.0895076 -0.151535 0.0674716 0.187167 0.176372 0.312698 0.0673439 0.199046 0.334351 0.0450341 0.339958 -0.225248 0.426796 -0.135323 0.0138913 -0.170584 -0.0803372
internal_weight=58723 30383 28340 21338 14973 14028 13367 7310 7744 10580 9045 5202 3162 2477 7229 6893 7135 6919 2040 4336 1022 3843 4008 328 3201 1018 8769 4001 5511 2974
internal_count=58723 30383 28340 21338 14973 14028 13367 7310 7744 10580 9045 5202 3162 2477 7229 6893 7135 6919 2040 4336 1022 3843 4008 328 3201 1018 8769 4001 5511 2974
is_linear=0
shrinkage=0.05


Tree=8
num_leaves=31
num_cat=0
split_feature=19 19 19 13 40 19 13 13 20 15 20 40 11 11 3 19 41 19 26 8 14 8 13 11 11 11 22 8 36 19
split_gain=474646 109815 59812.4 29838.9 21794.6 19495.7 18133.9 18125.8 16813.1 12245.5 11114.3 10984.7 10407.4 8970.27 8641.83 8571.79 8322.05 7368.01 8302.35 7287.78 7093.55 6943.26 6747.84 6554.89 6544.72 7439.33 6490.13 6349.56 6275.07 8655.57
threshold=0.004652890609577299 0.0030350290471687917 0.0067220847122371205 -0.015417246147990225 1.4859609603881838 0.0022388935321941976 -0.0083606471307575685 -0.023013368248939511 0.10958396643400194 1.0029820799827578 0.26263202726840978 0.9779479205608369 61162.134765625007 19262.822265625004 0.0031505759106948976 0.0035484695108607416 0.41125287115573889 0.010646970942616464 -123.67539215087889 37851.460937500007 -0.00055230988073162724 17498.144531250004 0.0093607995659112948 36118.806640625007 31060.526367187504 30394.250000000004 62208.609375000007 20259.162109375004 4482.4863281250009 0.0035078161163255577
decision_type=2 2 2 2 2 2 2 2 2 2 2 2 2 2 2 2 2 2 2 2 2 2 2 2 2 2 2 2 2 2
left_child=1 5 7 20 12 11 23 -2 14 22 15 16 17 -10 -9 -5 19 18 -4 -1 28 -13 -8 -7 25 -6 -14 -23 29 -3
right_child=2 3 4 10 24 6 9 8 13 -11 -12 21 26 -15 -16 -17 -18 -19 -20 -21 -22 27 -24 -25 -26 -27 -28 -29 -30 -31
leaf_value=0.28372494577055035 0.095281970152965662 0.51125201187282809 -0.15253003161527556 0.074756623125008317 0.0092302784787125555 0.30039619032680603 0.10292897037967341 -0.031514653300314395 0.3617892576735231 0.35885776297903899 0.17186363790654846 0.48530344384111412 0.58858330555260185 -0.023174401138546619 -0.15321673873702499 -0.0067607226337100534 0.38662479530725413 -0.3281176631176323 -0.2674388685770035 -0.08033921852607856 -0.10980936628983957 -0.29334256456392571 0.2599843229065481 0.58071756399907437 -0.13914026828209802 0.75825834478650778 -0.088836887123232539 0.16378530697182342 0.46405295003012387 0.1288590514496982
leaf_weight=1775 1343 200 2178 4847 627 770 4515 1778 158 636 1324 157 55 3581 8121 9636 3265 2956 5649 149 107 82 806 286 1541 35 99 1032 446 569
leaf_count=1775 1343 200 2178 4847 627 770 4515 1778 158 636 1324 157 55 3581 8121 9636 3265 2956 5649 149 107 82 806 286 1541 35 99 1032 446 569
internal_value=1.70318e-05 0.136284 -0.148272 0.0522818 -0.226134 0.243081 0.185355 -0.0799791 -0.0972379 0.151503 0.0331971 0.305749 -0.255034 -0.00690688 -0.131357 0.0205205 0.338017 -0.260863 -0.235463 0.255531 0.280476 0.174009 0.126719 0.376317 -0.0826549 0.0488315 0.153099 0.130137 0.314847 0.228311
internal_weight=58723 30602 28121 17129 13140 13473 7013 14981 13638 5957 15807 6460 10937 3739 9899 14483 5189 10783 7827 1924 1322 1271 5321 1056 2203 662 154 1114 1215 769
internal_count=58723 30602 28121 17129 13140 13473 7013 14981 13638 5957 15807 6460 10937 3739 9899 14483 5189 10783 7827 1924 1322 1271 5321 1056 2203 662 154 1114 1215 769
is_linear=0
shrinkage=0.05


Tree=9
num_leaves=31
num_cat=0
split_feature=19 19 19 13 40 13 40 11 14 19 24 40 11 27 19 19 6 23 13 14 9 13 20 27 26 13 11 19 19 27
split_gain=429402 81190.5 70961.6 22012.4 19674.3 19428.8 19624.1 12160.7 11943.9 10868.4 11160.6 10251.6 10040.6 9427.12 9331.97 9124.23 8816.25 8082.66 7901.09 8563.35 7751.58 7432.37 7363.82 7357.81 7325.92 7196.61 6657.09 6897.3 6575.94 9535.52
threshold=0.0043337459210306415 0.0026571921771392231 0.0067220847122371205 -0.013361932709813116 1.4744670391082766 -0.0081737581640481932 1.5824159383773806 31371.041992187504 -9.4066381279844777e-05 0.0034858054714277391 0.011701893061399462 0.84165623784065258 61162.134765625007 -22.661523818969723 0.001875995774753392 0.0035484695108607416 17451.238281250004 43485.382812500007 0.0025500747142359619 -0.00014322154311230403 16641.230468750004 0.03105808794498444 0.036172127351164825 -19.024494171142575 3.4248938560485844 0.0061624657828360805 16745.371093750004 0.0047248748596757659 0.010646970942616464 -124.5792770385742
decision_type=2 2 2 2 2 2 2 2 2 2 2 2 2 2 2 2 2 2 2 2 2 2 2 2 2 2 2 2 2 2
left_child=1 11 5 15 12 8 7 21 26 10 -5 14 28 -13 18 -3 -16 -12 24 -20 -15 -7 -11 -18 -1 -22 -2 -28 29 -4
right_child=2 3 4 9 -6 6 -8 -9 -10 22 17 13 -14 20 16 -17 23 -19 19 -21 25 -23 -24 -25 -26 -27 27 -29 -30 -31
leaf_value=0.24964445378494574 0.58836048719557854 0.41088410292718724 -0.13164201125165959 0.063868354473074082 -0.081618284615380843 -0.055932819767689601 0.1288988538104065 -0.14457938719684346 -0.19385088518574656 -0.01460520001911487 0.24530588106444295 0.41281908598471173 0.16608620393656295 0.65520487431142671 -0.081300711480494087 0.16003472944303276 0.38405746692833964 0.037036149995401502 -0.26079699053296024 0.5400784100637086 0.11412025349108131 0.19642568606023605 0.084353031476003343 0.22059737572071048 0.45739608601287451 0.3544899126499052 0.16106507782081372 0.0071509684086893807 -0.31237294827424972 -0.25754292069676249
leaf_weight=1389 55 614 2039 5347 2289 2853 897 8604 606 5119 1838 409 148 76 197 885 923 624 35 720 2535 325 2971 2709 611 355 890 3996 2933 5731
leaf_count=1389 55 614 2039 5347 2289 2853 897 8604 606 5119 1838 409 148 76 197 885 923 624 35 720 2535 325 2971 2709 611 355 890 3996 2933 5731
internal_value=1.61801e-05 0.144791 -0.126254 0.0796212 -0.214827 -0.0623981 -0.0965436 -0.113707 0.0156498 0.0623521 0.104429 0.25864 -0.242927 0.187786 0.294961 0.262784 0.244468 0.192519 0.365137 0.502952 0.156755 -0.0301252 0.0217366 0.262137 0.313113 0.143647 0.0413445 0.0351869 -0.248583 -0.224504
internal_weight=58723 27357 31366 17398 13140 18226 12679 11782 5547 15899 7809 9959 10851 3375 6584 1499 3829 2462 2755 755 2966 3178 8090 3632 2000 2890 4941 4886 10703 7770
internal_count=58723 27357 31366 17398 13140 18226 12679 11782 5547 15899 7809 9959 10851 3375 6584 1499 3829 2462 2755 755 2966 3178 8090 3632 2000 2890 4941 4886 10703 7770
is_linear=0
shrinkage=0.05


Tree=10
num_leaves=31
num_cat=0
split_feature=19 19 19 13 45 13 14 19 13 20 53 20 14 13 14 14 28 27 19 21 27 19 19 49 45 36 13 54 13 36
split_gain=395692 119696 34622.2 20534.5 19877.7 18839.1 18133.1 16597.5 19618.7 12271.8 11962.4 11255.5 8568.46 7739.42 11490.5 8692.04 8498.75 7609.84 11114.1 10819.2 7406.83 7339.19 6910.44 6697.3 6463.18 6343.31 6316.65 5834.88 5559.88 6117.86
threshold=0.0035078161163255577 0.0057233523111790427 0.0025992312002927069 -0.0089839422143995745 8.3589202404255058e-07 -0.0052560546901077023 -0.00022333800734486428 0.0087080239318311232 -0.026644809171557423 0.065595135092735304 3.3105561733245854 0.25580483675003057 -0.0006299450178630649 0.0056480802595615396 0.00093688876950182032 0.00061087004723958682 -12.915501117706297 -13.297933101654051 0.0020762857748195533 19238.771484375004 -109.17053985595702 0.001875995774753392 0.0040480750612914571 0.36945411562919622 1.43276213293575e-06 20043.166992187504 -0.038550188764929764 7.3288466410942332 0.009144418407231571 2948.0834960937505
decision_type=2 2 2 2 2 2 2 2 2 2 2 2 2 2 2 2 2 2 2 2 2 2 2 2 2 2 2 2 2 2
left_child=2 4 13 12 5 6 26 8 -3 20 28 22 27 14 17 -15 -17 19 -19 -1 -10 -18 -7 -9 -6 -25 -2 -4 -5 -30
right_child=1 7 3 10 24 11 -8 23 9 -11 -12 -13 -14 15 -16 16 21 18 -20 -21 -22 -23 -24 25 -26 -27 -28 -29 29 -31
leaf_value=-0.021859596265320802 0.4649066007543694 0.021756902670005438 0.4406003791913185 0.030807348450880786 0.08087437240247175 -0.018003565473840768 -0.14092606305499603 0.067623284141692885 -0.094382487090830899 -0.10138386244197667 0.20607838565541897 0.099603588146193994 0.023258176847269097 0.16019617260026281 -0.052579602765471939 0.18630134905651799 0.76337887150534689 0.2697024602576244 0.1201470134939944 0.36500361600310577 -0.23349436773417187 0.42444424529223607 -0.10213053697122837 -0.26605874461327278 0.28318551092480243 -0.087411837905947809 0.081464491174938758 0.20225514343409548 0.070766119258350704 0.30872797979641464
leaf_weight=199 110 1537 727 4772 2523 3563 1034 169 1150 4177 1680 997 233 384 327 254 221 3662 1880 1968 5697 576 7752 5971 468 542 4554 397 803 407
leaf_count=199 110 1537 727 4772 2523 3563 1034 169 1150 4177 1680 997 233 384 327 254 221 3662 1880 1968 5697 576 7752 5971 468 542 4554 397 803 407
internal_value=-0.00141123 -0.0893786 0.190052 0.119939 -0.00683632 -0.02666 0.0485103 -0.179462 -0.145593 -0.168926 0.0881887 -0.0614488 0.299212 0.256819 0.237719 0.363779 0.438161 0.250033 0.218969 0.329477 -0.21013 0.518427 -0.0756396 -0.243129 0.11253 -0.251192 0.0905079 0.356416 0.0550803 0.150808
internal_weight=58734 40244 18490 9019 21001 18010 5698 19243 12561 11024 7662 12312 1357 9471 8036 1435 1051 7709 5542 2167 6847 797 11315 6682 2991 6513 4664 1124 5982 1210
internal_count=58734 40244 18490 9019 21001 18010 5698 19243 12561 11024 7662 12312 1357 9471 8036 1435 1051 7709 5542 2167 6847 797 11315 6682 2991 6513 4664 1124 5982 1210
is_linear=0
shrinkage=0.05


Tree=11
num_leaves=31
num_cat=0
split_feature=19 19 19 13 45 47 14 27 14 20 20 13 12 12 35 19 14 19 27 41 13 13 22 9 13 26 5 45 34 20
split_gain=357184 82822 53617.1 21090.7 18410 17768.4 14236.7 11279.6 11259.6 11033.5 10495.3 8685.37 8774.89 8536.65 8136.92 8050.4 8634.57 7034.63 9217.35 10113.5 7913.22 6985.65 6779.01 6537.41 5810.95 5784.94 5738.54 5559.27 5372.64 5745.84
threshold=0.003918923670426012 0.0057569174095988282 0.0025992312002927069 -0.0068685032892972222 7.8260922009576472e-07 0.025009036064147953 -5.5167436585179523e-05 -13.297933101654051 -0.00056681031128391613 0.15526369214057925 0.2361671328544617 0.0089208343997597712 38610.732421875007 57702.593750000007 0.35270652174949652 0.0091878240928053873 -0.0010839827591553328 0.0016372877289541068 -21.851473808288571 0.81361874938011181 0.0093607995659112948 -0.036811880767345422 19165.507812500004 16641.230468750004 0.0056480802595615396 -21.376149177551266 18865.128906250004 1.43276213293575e-06 -0.018728643655776974 0.063621487468481078
decision_type=2 2 2 2 2 2 2 2 2 2 2 2 2 2 2 2 2 2 2 2 2 2 2 2 2 2 2 2 2 2
left_child=2 4 17 8 6 15 7 21 -4 13 11 -5 -13 14 -7 16 -3 23 22 20 -20 -2 -19 -1 25 -25 -11 -6 -29 -30
right_child=1 5 3 10 27 9 -8 -9 -10 26 -12 12 -14 -15 -16 -17 -18 18 19 -21 -22 -23 -24 24 -26 -27 -28 28 29 -31
leaf_value=0.75443570882808875 0.43997244493362786 -0.013004896516026061 0.26610644085577734 0.011642083460420293 0.061771268878672903 -0.071475368292587119 -0.090925750545361769 -0.078148939221941716 0.029818807439864453 0.37262972732385002 0.22061328336611108 0.20258378512721709 0.024548098741429328 0.027701726478214068 -0.2505861191361432 -0.2053200506425128 -0.14404005780757675 -0.061643682389843225 0.15155149226108758 0.37550131696064964 0.43855508608824539 0.050944975829844863 0.3708842946026002 0.65110033310876037 0.60428847396695939 0.26411672729146562 -0.12261065575420105 -0.037201791840294998 0.16859559568160393 0.58430494252067289
leaf_weight=82 119 2675 2146 6967 2750 682 7472 2226 659 60 892 1428 1343 312 9028 1536 2372 98 4736 652 253 3809 1198 101 148 2203 2330 120 188 149
leaf_count=82 119 2675 2146 6967 2750 682 7472 2226 659 60 892 1428 1343 312 9028 1536 2372 98 4736 652 253 3809 1198 101 148 2203 2330 120 188 149
internal_value=-0.00134066 -0.099931 0.152868 0.0886394 -0.0191758 -0.171495 -0.0445436 0.0117723 0.210594 -0.206713 0.0564586 0.0414221 0.116297 -0.229734 -0.238006 -0.105092 -0.0745891 0.243978 0.217934 0.190308 0.166106 0.0627307 0.338178 0.315276 0.300589 0.281081 -0.110178 0.0886075 0.250095 0.352396
internal_weight=58734 35828 22906 13435 16833 18995 13626 6154 2805 12412 10630 9738 2771 10022 9710 6583 5047 9471 6937 5641 4989 3928 1296 2534 2452 2304 2390 3207 457 337
internal_count=58734 35828 22906 13435 16833 18995 13626 6154 2805 12412 10630 9738 2771 10022 9710 6583 5047 9471 6937 5641 4989 3928 1296 2534 2452 2304 2390 3207 457 337
is_linear=0
shrinkage=0.05


Tree=12
num_leaves=31
num_cat=0
split_feature=19 19 19 40 27 45 14 19 27 27 24 40 14 20 40 47 18 15 43 45 27 36 19 23 21 20 24 46 23 19
split_gain=324854 96886.7 28494.1 23006.5 18027.3 16333.3 15242.8 15134.9 13261.5 13187.4 12338 8779.86 8731.36 8072.22 7736.84 7562.51 9116.1 6695.35 6679.09 6613.71 6208.55 11695.3 5959.23 5808.42 5532 5510.07 5503.22 5289.87 5273.41 5204.94
threshold=0.0035078161163255577 0.0056248672772198924 0.0022652614861726765 1.5357795953750613 -24.309257507324215 8.3589202404255058e-07 -9.4066381279844777e-05 0.0077510741539299497 -11.262759685516356 -116.67292022705077 0.011972491629421713 0.98619207739830028 0.00013793050311505797 0.07780377566814424 1.8304153680801394 0.010966517962515356 34.975097656250007 0.99846747517585765 0.015730830840766433 1.2209305566557307e-07 48.977739334106452 2501.051391601563 0.0024911573855206375 63689.777343750007 16637.036132812504 0.12820510566234591 0.0087359966710209864 0.0044361599721014508 18611.274414062504 0.0088253435678780096
decision_type=2 2 2 2 2 2 2 2 2 2 2 2 2 2 2 2 2 2 2 2 2 2 2 2 2 2 2 2 2 2
left_child=2 5 11 7 12 6 8 9 -2 28 20 15 18 -11 23 17 -17 -1 26 -13 -6 -22 -14 -8 -7 -12 -4 -19 -3 -5
right_child=1 3 4 29 10 24 14 -9 -10 13 25 19 22 -15 -16 16 -18 27 -20 -21 21 -23 -24 -25 -26 -27 -28 -29 -30 -31
leaf_value=0.42362391258004434 0.079408569415687871 0.76256742819813172 0.36451326770562215 0.03556272925976231 0.03782855175385378 0.5125174824784442 -0.073229162272605508 -0.23131497886578878 -0.058725112837186594 -0.20296539811910513 0.15732703698072315 -0.14707318092273042 0.53156916924885345 -0.089165472700367038 0.35008833273646556 0.5039888929612264 0.29014716150870096 -0.3706476209261878 0.81530003171218068 0.18253544405450425 0.049490553917830207 0.38796860118178711 0.018974987518475959 0.20963220932797808 0.095703745468135148 0.36207245210734545 0.20213543537903966 0.18450255293014314 -0.033824729866599387 -0.10922431044112031
leaf_weight=307 4958 21 869 1593 5790 82 9563 7871 2675 5168 1593 176 63 2231 112 611 2704 44 57 1125 742 389 567 185 2725 414 1306 1733 2043 1017
leaf_count=307 4958 21 869 1593 5790 82 9563 7871 2675 5168 1593 176 63 2231 112 611 2704 44 57 1125 742 389 567 185 2725 414 1306 1733 2043 1017
internal_value=-0.00127363 -0.0809789 0.172207 -0.159249 0.125416 -0.00408185 -0.0220477 -0.180087 0.0309993 -0.137477 0.090411 0.254545 0.234616 -0.168652 -0.0631135 0.282642 0.329561 0.208007 0.281014 0.137946 0.0587587 0.165908 0.0702344 -0.0678609 0.10788 0.199562 0.267012 0.170757 -0.0257219 -0.0208543
internal_weight=58734 40244 18490 19944 11790 20300 17493 17334 7633 9463 8928 6700 2862 7399 9860 5399 3315 2084 2232 1301 6921 1131 630 9748 2807 2007 2175 1777 2064 2610
internal_count=58734 40244 18490 19944 11790 20300 17493 17334 7633 9463 8928 6700 2862 7399 9860 5399 3315 2084 2232 1301 6921 1131 630 9748 2807 2007 2175 1777 2064 2610
is_linear=0
shrinkage=0.05


Tree=13
num_leaves=31
num_cat=0
split_feature=18 3 11 18 18 13 12 3 35 18 35 47 14 13 13 16 12 11 23 13 14 14 16 28 26 53 13 21 14 14
split_gain=277777 49826.7 33822.1 19297.8 12826.1 11892.2 11510.8 11049.9 15365.1 10087.9 10079.3 9480.99 9258.61 8225.99 7632.44 7195.84 6794.59 6541.18 9164.41 6144.49 9320.7 8556.82 5982.67 5509.72 5401.34 7965.09 7126.48 5374.79 5318.94 5288.16
threshold=174.55803680419925 0.0022361690644174819 40582.070312500007 265.39273071289068 229.98535156250003 -0.002363563515245914 57702.593750000007 0.0042370958253741273 0.89860409498214733 49.160715103149421 2.4856134653091435 0.019683129154145721 0.00024363558623008433 -0.018483678810298439 -0.0091933105140924436 65.958930969238295 27868.485351562504 31060.526367187504 31281.325195312504 0.0010779701406136157 -0.00022333800734486428 0.00050477177137508999 72.177680969238295 98.777168273925795 -8.6519961357116681 3.5253008604049687 -0.00074958769255317737 16637.036132812504 -0.0020341027993708845 -0.00033715237805154169
decision_type=2 2 2 2 2 2 2 2 2 2 2 2 2 2 2 2 2 2 2 2 2 2 2 2 2 2 2 2 2 2
left_child=1 9 4 5 28 12 11 8 13 19 16 -5 23 -3 29 -15 27 18 -6 21 -21 -1 -16 -4 26 -26 -11 -9 -2 -10
right_child=2 7 3 6 17 -7 -8 10 14 24 -12 -13 -14 15 22 -17 -18 -19 -20 20 -22 -23 -24 -25 25 -27 -28 -29 -30 -31
leaf_value=0.23221300570819792 0.044973233671614321 0.21889024150082906 0.087320321312345461 -0.054765076158820508 -0.12415433858713582 -0.061568624462606886 -0.014646987977280585 0.31291361812581409 0.3569792387517835 0.1698983476287094 0.12713920005773605 -0.18302264418162326 -0.18552497132113568 0.0058607865799074794 0.11080561934468698 0.15002787491420891 0.051283452986597283 -0.23999086222674471 0.95692874014377594 -0.16309559712452548 0.38115490981444561 -0.23241522147302304 0.31268298507764425 0.90028365566616975 0.086189955405005653 0.25045889371748936 0.36804756746702472 -0.069977956434482541 -0.13054877998532788 -0.10776185341836775
leaf_weight=2100 495 604 2760 1979 988 4853 2075 94 613 2047 1449 5299 333 6016 3820 1011 2132 6231 20 84 1239 104 406 21 3318 949 583 3672 3371 68
leaf_count=2100 495 604 2760 1979 988 4853 2075 94 613 2047 1449 5299 333 6016 3820 1011 2132 6231 20 84 1239 104 406 21 3318 949 583 3672 3371 68
internal_value=-0.00120995 0.104092 -0.113492 -0.0698194 -0.181605 -0.0126349 -0.11853 0.0576761 0.0862078 0.192637 0.00898542 -0.148147 0.0636256 0.0418224 0.155233 0.0266026 -0.0200422 -0.220874 -0.102704 0.26142 0.346599 0.210289 0.1302 0.0934592 0.157462 0.122724 0.213823 -0.0604209 -0.108075 0.310573
internal_weight=58734 30309 28425 17320 11105 7967 9353 19885 12538 10424 7347 7278 3114 7631 4907 7027 5898 7239 1008 3527 1323 2204 4226 2781 6897 4267 2630 3766 3866 681
internal_count=58734 30309 28425 17320 11105 7967 9353 19885 12538 10424 7347 7278 3114 7631 4907 7027 5898 7239 1008 3527 1323 2204 4226 2781 6897 4267 2630 3766 3866 681
is_linear=0
shrinkage=0.05


Tree=14
num_leaves=31
num_cat=0
split_feature=19 19 19 13 40 13 20 40 16 35 21 19 24 19 8 30 3 47 18 12 15 45 3 18 18 46 19 47 5 19
split_gain=269350 55845.8 42493.7 18027.2 16232.7 15722.2 14029.5 10302.5 9951.42 8316.83 7769.35 7053.66 7066.2 6805.9 6463.34 6183.6 6039.71 5944.71 10325.9 9469.32 6546.98 5865.02 5787.88 5406.73 5371.51 5012.99 4852.74 4732.75 4439.67 4342.29
threshold=0.0043337459210306415 0.0025992312002927069 0.0067693064920604238 -0.010069255717098711 1.4966473579406741 -0.022318197414278981 0.065595135092735304 1.044531047344208 72.177680969238295 0.46173758804798132 16637.036132812504 0.0033383797854185109 0.011972491629421713 0.0035908045247197156 17498.144531250004 43.689292907714851 0.0041805037762969741 0.010966517962515356 34.975097656250007 17491.543945312504 0.99842318892478954 1.43276213293575e-06 0.0074806523043662318 95.521553039550795 168.98771667480472 0.0044361599721014508 0.005593453301116825 0.048225369304418571 17454.006835937504 0.0028692426858469848
decision_type=2 2 2 2 2 2 2 2 2 2 2 2 2 2 2 2 2 2 2 2 2 2 2 2 2 2 2 2 2 2
left_child=1 7 5 13 16 23 9 17 11 -7 -8 12 -5 15 -9 29 -4 20 -19 -20 28 -12 -6 -2 -10 -22 -11 -18 -1 -3
right_child=2 3 4 8 22 6 10 14 24 26 21 -13 -14 -15 -16 -17 27 18 19 -21 25 -23 -24 -25 -26 -27 -28 -29 -30 -31
leaf_value=-0.077353762421343064 0.49628766372799876 0.41008427177296314 -0.066975984394288909 0.04207113329731816 0.061050778729807166 -0.01542178599827488 0.65710295262661855 0.37907895502708433 0.23394792105679962 -0.094548136278847894 -0.02158900900135597 -0.00095913930939170184 0.17496747017889844 0.10564243275086196 0.057190980338658173 0.37016520839723782 -0.17507849558346861 0.45447950296295742 -0.20197644452801194 0.25189057633277584 -0.35885839089371113 0.2001484689462398 -0.10970466220799834 0.074871215601671745 -0.029657639790548647 0.15233887741605479 -0.17268814165836691 -0.24422973156891872 0.40536100743107939 0.073124784645066096
leaf_weight=54 80 122 855 4615 823 2282 44 176 944 5499 5597 8137 1277 1335 1369 677 5642 641 118 4405 49 315 1250 1566 243 2255 3111 4407 404 442
leaf_count=54 80 122 855 4615 823 2282 44 176 944 5499 5597 8137 1277 1335 1369 677 5642 641 118 4405 49 315 1250 1566 243 2255 3111 4407 404 442
internal_value=-0.00114945 0.113891 -0.100808 0.0616801 -0.170168 -0.0521395 -0.0665491 0.211974 0.0409718 -0.100289 -0.00484795 0.02921 0.0708744 0.184001 0.0938591 0.268294 -0.19455 0.234998 0.266667 0.24005 0.175789 -0.00977451 -0.0419132 0.0953532 0.179983 0.141467 -0.122782 -0.205405 0.348447 0.146013
internal_weight=58734 27263 31471 17792 12977 18494 16848 9471 15216 10892 5956 14029 5892 2576 1545 1241 10904 7926 5164 4523 2762 5912 2073 1646 1187 2304 8610 10049 458 564
internal_count=58734 27263 31471 17792 12977 18494 16848 9471 15216 10892 5956 14029 5892 2576 1545 1241 10904 7926 5164 4523 2762 5912 2073 1646 1187 2304 8610 10049 458 564
is_linear=0
shrinkage=0.05


Tree=15
num_leaves=31
num_cat=0
split_feature=19 19 19 13 40 20 19 13 13 16 14 28 45 23 54 45 14 18 23 40 38 54 13 54 19 26 26 40 26 40
split_gain=248953 70461.8 23140.2 17605.7 16820.4 13836.1 13491 9953.2 9784.19 9707.19 9629.6 7802.33 7481.71 7421.95 8234.81 6522.22 6908.09 6278.49 7290.85 6234.4 6254.18 6126.34 7028.97 5966.08 5685.73 5614.71 5591.61 5421.74 5231.84 5006.54
threshold=0.0035278208088129763 0.0055644870735704908 0.0022388935321941976 -0.0074135581962764254 1.2619214057922366 0.10228921473026277 0.0075450509320944556 -0.035370877012610429 -0.015417246147990225 72.177680969238295 -0.0006806747696828096 13.469309329986574 9.5699707713947659e-08 19095.633789062504 7.441225246788826 1.5718549661869476e-06 -0.00050841504707932461 175.9567565917969 63689.777343750007 1.8304153680801394 0.6367916762828828 7.6296187460465097 0.009144418407231571 7.6717336358532124 0.0015002881409600379 51.066711425781257 56.73164367675782 0.76093658804893505 -19.065371513366696 0.44942188262939459
decision_type=2 2 2 2 2 2 2 2 2 2 2 2 2 2 2 2 2 2 2 2 2 2 2 2 2 2 2 2 2 2
left_child=2 5 12 10 6 8 7 -3 -2 21 11 27 -1 14 -6 16 -7 26 -19 20 -15 22 -5 24 28 -26 -10 -4 -14 -12
right_child=1 4 3 9 13 15 -8 -9 17 -11 29 -13 23 19 -16 -17 -18 18 -20 -21 -22 -23 -24 -25 25 -27 -28 -29 -30 -31
leaf_value=0.019511463603689144 0.090748169030133163 0.15619205079878434 0.087724577733463371 0.050036297602806326 0.41682058547157796 0.14973610968385531 -0.21496005449691491 -0.1303776720487955 -0.033686767378519188 0.26542345112960403 0.61713489893720386 0.42006174560591092 0.73716001309253076 -0.0024339508717076664 -0.12190643972754478 0.48794290536380081 0.021670774499055977 -0.082888270351764812 0.2395707612236341 0.059253009007736834 -0.13221609419312302 -0.32327411021247054 0.15853922503754497 -0.28340659138781055 0.20660786099969286 0.53754258713487424 0.073894981742425758 0.31896184354874435 0.30640099207127358 0.0060891208126070077
leaf_weight=411 1563 316 504 7319 164 1516 6888 7365 4537 667 36 711 74 1270 125 91 3448 6706 180 735 3450 99 1875 54 4416 132 1646 510 1486 487
leaf_count=411 1563 316 504 7319 164 1516 6888 7365 4537 667 36 711 74 1270 125 91 3448 6706 180 735 3450 99 1875 54 4416 132 1646 510 1486 487
internal_value=0.000256867 -0.0702513 0.150426 0.109702 -0.135582 -0.00284293 -0.164151 -0.118588 -0.0274803 0.0811757 0.23609 0.293071 0.226063 -0.0631207 0.183807 0.0684715 0.0607818 -0.04162 -0.0744592 -0.0762027 -0.0972959 0.0679514 0.0721641 0.23984 0.244466 0.216213 -0.00504702 0.204027 0.326834 0.0481496
internal_weight=58781 40000 18781 12208 20313 19687 14569 7681 14632 9960 2248 1725 6573 5744 289 5055 4964 13069 6886 5455 4720 9293 9194 6162 6108 4548 6183 1014 1560 523
internal_count=58781 40000 18781 12208 20313 19687 14569 7681 14632 9960 2248 1725 6573 5744 289 5055 4964 13069 6886 5455 4720 9293 9194 6162 6108 4548 6183 1014 1560 523
is_linear=0
shrinkage=0.05


Tree=16
num_leaves=31
num_cat=0
split_feature=19 19 19 40 40 47 27 14 19 27 12 16 26 40 27 47 19 16 23 8 18 40 40 36 3 24 40 6 36 35
split_gain=225367 51109.1 32415.1 13704.6 12246.2 11090.7 10931 10006 9997.96 11770 7781.65 7535.65 7431.81 7311.01 11108.6 9503.32 10521.1 7143.4 7129.4 6939.55 6396.39 6031.09 5498.49 5404.9 5379.84 5022.01 5528.56 4861.3 4841.73 4523.67
threshold=0.0038493365282192831 0.0058561433106660852 0.0026900608791038398 1.2619214057922366 1.5824159383773806 0.014114174991846086 -33.732133865356438 0.00022992010781308639 0.007610596716403962 -133.12254333496091 16679.492187500004 63.826982498168952 56.73164367675782 0.8386037051677705 -21.851473808288571 0.010966517962515356 0.0012307042488828304 82.57672500610353 63689.777343750007 17498.144531250004 183.52818298339847 1.8304153680801394 1.5357795953750613 4444.7548828125009 0.0074076643213629731 0.0084494752809405344 0.36329697072505956 19099.907226562504 9403.6425781250018 0.34618982672691351
decision_type=2 2 2 2 2 2 2 2 2 2 2 2 2 2 2 2 2 2 2 2 2 2 2 2 2 2 2 2 2 2
left_child=2 4 12 8 5 10 7 25 9 27 -2 18 13 15 -15 -1 -17 22 -7 -16 -13 24 -8 -11 -5 -4 -27 -3 -12 -10
right_child=1 3 6 21 -6 11 17 -9 29 23 28 20 -14 14 19 16 -18 -19 -20 -21 -22 -23 -24 -25 -26 26 -28 -29 -30 -31
leaf_value=0.1265898293868887 0.73397809177637097 0.74149688352709242 0.37458702043199416 -0.033432501813329595 0.14196206131544828 -0.080976631623070949 0.032294757966598114 -0.037843043785457928 -0.034954300355267427 -0.20033926956983106 0.017760219780295603 0.086772693818445379 0.41910569581540602 0.35050738611632687 0.29751548326866967 0.51052893883678863 0.23256812965839077 0.40515805918942482 0.31353661138564348 0.060465941910317955 -0.047844066726412768 0.063935874103001278 0.22696701360353033 -0.096757509056513799 -0.14310230294592927 0.72045958532227417 0.15836410665584266 0.0076623807873533491 0.20592999213759666 -0.21527109359135588
leaf_weight=2090 40 23 387 2203 1134 8957 8975 497 368 2661 4094 1537 345 468 350 372 4012 136 116 2619 2072 752 378 2391 2271 45 1569 1202 373 6344
leaf_count=2090 40 23 387 2203 1134 8957 8975 497 368 2661 4094 1537 345 468 350 372 4012 136 116 2619 2072 752 378 2391 2271 45 1569 1202 373 6344
internal_value=0.000244024 -0.0761432 0.125723 -0.135454 -0.0171825 -0.0276816 0.0698917 0.162951 -0.162963 -0.117602 0.0396897 -0.0516244 0.190978 0.183037 0.124099 0.214327 0.256154 0.0453937 -0.0759327 0.0884105 0.00948648 -0.0670795 0.0401624 -0.151316 -0.0891008 0.212823 0.174036 0.0214405 0.0334726 -0.205385
internal_weight=58781 36538 22243 18215 18323 17189 11987 2498 12989 6277 4507 12682 10256 9911 3437 6474 4384 9489 9073 2969 3609 5226 9353 5052 4474 2001 1614 1225 4467 6712
internal_count=58781 36538 22243 18215 18323 17189 11987 2498 12989 6277 4507 12682 10256 9911 3437 6474 4384 9489 9073 2969 3609 5226 9353 5052 4474 2001 1614 1225 4467 6712
is_linear=0
shrinkage=0.05


Tree=17
num_leaves=31
num_cat=0
split_feature=19 19 19 13 47 20 24 20 14 27 45 12 46 3 45 28 5 19 45 14 14 54 12 27 14 19 27 24 26 49
split_gain=203808 57590.1 19430.3 15232.6 12050.3 11855.8 9672.72 8779.47 8620.26 8575.5 8158.44 8026.08 8018.74 7227.88 6886.07 6838.9 6589.88 5822.39 5730.48 6073.16 5564.37 5415.81 5347.54 5296.87 5219.37 4962.32 6273.36 5270.2 4949.31 4744.28
threshold=0.0035278208088129763 0.0055644870735704908 0.0022388935321941976 -0.0074135581962764254 0.025009036064147953 0.10228921473026277 0.010725141968578102 0.15875864773988727 -0.0006806747696828096 -109.17053985595702 5.9590777823359541e-07 57702.593750000007 0.010517438873648645 0.0067151312250643977 9.5699707713947659e-08 16.767258644104007 39092.626953125007 0.0026571921771392231 1.5718549661869476e-06 -0.00050841504707932461 -0.0028663553530350323 7.6717336358532124 16679.492187500004 -24.309257507324215 0.0046863597817718991 0.0015002881409600379 19.272120475769047 0.0096947504207491892 -14.725470066070555 0.75490766763687145
decision_type=2 2 2 2 2 2 2 2 2 2 2 2 2 2 2 2 2 2 2 2 2 2 2 2 2 2 2 2 2 2
left_child=2 5 14 8 22 9 17 11 15 -2 -11 13 16 -6 -1 20 -8 23 19 -7 -4 25 -3 -5 -12 26 -16 -27 -10 -24
right_child=1 4 3 6 7 18 12 -9 28 10 24 -13 -14 -15 21 -17 -18 -19 -20 -21 -22 -23 29 -25 -26 27 -28 -29 -30 -31
leaf_value=0.0072547964189754498 0.084083313017902922 0.45563666624948385 -0.1837761537955058 0.28669528585156567 -0.13621507884220838 0.13958916129491547 0.32765779479519558 -0.067002722154426306 0.094421074216282277 -0.062629589370896119 0.021849357665335738 0.062237856595017828 0.083470941537910681 -0.22001619924086208 0.28372323494591434 0.40745973473305219 0.080381228742671437 0.001424786387547726 0.45657924549183354 0.01951207897952674 0.23026343460244819 -0.27990159833872758 -0.02029652985864162 0.069720447525939463 0.77756599576576901 0.17972416611932349 0.91807559716515252 0.36786559811795549 -0.38476855161248663 -0.10508363948712632
leaf_weight=411 1593 48 88 325 5050 1516 801 2517 462 9568 3448 357 2152 5246 1520 595 406 4185 91 3448 1042 54 2610 2091 23 4139 40 409 61 4485
leaf_count=411 1593 48 88 325 5050 1516 801 2517 462 9568 3448 357 2152 5246 1520 595 406 4185 91 3448 1042 54 2610 2091 23 4139 40 409 61 4485
internal_value=0.000231823 -0.0635638 0.136105 0.0987872 -0.122627 -0.0026226 0.0722532 -0.150988 0.216349 -0.0254288 -0.0388081 -0.170832 0.141327 -0.178913 0.205414 0.270261 0.244481 0.0371041 0.0633914 0.0561835 0.19802 0.218631 -0.0703351 0.0989079 0.026857 0.223038 0.299989 0.196644 0.0385309 -0.0738935
internal_weight=58781 40000 18781 12208 20313 19687 9960 13170 2248 14632 13039 10653 3359 10296 6573 1725 1207 6601 5055 4964 1130 6162 7143 2416 3471 6108 1560 4548 523 7095
internal_count=58781 40000 18781 12208 20313 19687 9960 13170 2248 14632 13039 10653 3359 10296 6573 1725 1207 6601 5055 4964 1130 6162 7143 2416 3471 6108 1560 4548 523 7095
is_linear=0
shrinkage=0.05


Tree=18
num_leaves=31
num_cat=0
split_feature=19 19 19 13 19 13 49 36 24 19 21 14 20 8 6 47 13 14 14 47 13 31 5 41 23 14 8 21 46 13
split_gain=184782 41761.3 26283.7 14163.6 11736.5 11505.3 8540.58 8524.29 8116.22 7770.93 7679.87 7614.4 7211.23 7631.18 6037.52 5890.48 5574.01 9333.22 6851.88 10071.5 7134.95 6578.74 5523.91 5402.26 5177.96 5149.58 4972.07 4927.66 7431.48 5238.43
threshold=0.0038493365282192831 0.0067220847122371205 0.0026900608791038398 -0.020606702193617817 0.0053545108530670413 -0.0072310809046030036 0.49200788140296942 9602.2915039062518 0.011145277414470913 0.0032137698726728563 17278.170898437504 -0.00026572977367322887 0.17705925554037097 61072.199218750007 62226.222656250007 0.02411005832254887 0.0053244393784552821 0.00089647813001647602 0.00056395676801912497 0.029676021076738838 0.0095771136693656462 24.192996978759769 43787.857421875007 0.63491383194923412 45791.859375000007 -0.00070028024492785324 19895.563476562504 42312.660156250007 0.021173203364014629 0.024227306246757511
decision_type=2 2 2 2 2 2 2 2 2 2 2 2 2 2 2 2 2 2 2 2 2 2 2 2 2 2 2 2 2 2
left_child=2 3 16 10 7 11 -3 -5 27 -10 -2 -4 13 15 -15 -8 17 21 -18 23 -21 -1 -11 -20 -23 -12 -14 29 -29 -7
right_child=1 6 5 4 -6 8 12 -9 9 22 25 -13 26 14 -16 -17 18 -19 19 20 -22 24 -24 -25 -26 -27 -28 28 -30 -31
leaf_value=0.28278761364743887 0.81744662606053886 -0.010848032518549664 0.19532873682852592 -0.023994932345832644 -0.091399991128931046 -0.051288832040157994 -0.11275551009505057 0.1375577179242434 0.19707780775573097 0.095776072156400563 0.1044462604646501 -0.078923168730559878 0.18185040243894166 0.66211426052007272 -0.053570816102378731 -0.20254508715329711 0.088532554747633121 -0.093692273499241779 0.85818312007439812 -0.030617768420941299 0.29813838063406622 0.14312013016278177 -0.048090118378542081 0.41483688605246399 0.44201077593339461 -0.17800130327443847 -0.097194539961669921 0.023797001445641064 0.31324152455116683 0.2799071682917495
leaf_weight=1063 36 1162 2088 12835 7535 3212 2500 872 1227 1997 1942 288 171 47 79 6781 464 359 82 234 560 6922 1002 424 148 176 2402 1796 253 124
leaf_count=1063 36 1162 2088 12835 7535 3212 2500 872 1227 1997 1942 288 171 47 79 6781 464 359 82 234 560 6922 1002 424 148 176 2402 1796 253 124
internal_value=0.000220232 -0.0689479 0.113841 -0.0288848 -0.0412731 0.0635662 -0.14027 -0.0137174 0.0392104 0.0910774 0.0932843 0.162086 -0.152823 -0.173111 0.213391 -0.178359 0.172601 0.155801 0.253477 0.31235 0.201251 0.166814 0.0477087 0.486684 0.149377 0.0809756 -0.0786494 -0.00149336 0.0595361 -0.0389782
internal_weight=58781 36538 22243 23396 21242 11987 13142 13707 9611 4226 2154 2376 11980 9407 126 9281 10256 8492 1764 1300 794 8133 2999 506 7070 2118 2573 5385 2049 3336
internal_count=58781 36538 22243 23396 21242 11987 13142 13707 9611 4226 2154 2376 11980 9407 126 9281 10256 8492 1764 1300 794 8133 2999 506 7070 2118 2573 5385 2049 3336
is_linear=0
shrinkage=0.05


Tree=19
num_leaves=31
num_cat=0
split_feature=3 3 3 35 35 49 11 47 40 14 35 35 40 14 3 46 23 26 11 47 49 11 47 6 14 5 14 11 35 10
split_gain=137830 22504.7 21257.1 16966.8 13435.2 12099.8 8763.4 7601.64 7403.53 7219.78 6354.99 6039.69 5866.17 5008.23 4921.35 4849.56 5052.05 4678.71 4573.27 4184.96 4790.55 4108.78 3965.06 3621.88 3721.84 3556.21 3354.34 3339.59 3224.6 3343.88
threshold=0.003445625770837069 0.001977187930606306 0.0055832918733358392 1.770963251590729 1.3118301630020144 0.93003410100936901 38435.906250000007 0.018750829622149471 1.2174304127693178 -2.6868807253777046e-05 0.69804960489273082 3.2880527973175053 0.65236821770668041 0.00020357647736091169 0.010543063748627903 0.006609782576560975 39166.429687500007 -20.612430572509762 57526.597656250007 0.014800468925386669 0.90215426683425914 31060.526367187504 0.027685065753757957 39200.630859375007 0.0012510119122453036 16650.893554687504 -0.0039028602186590429 37365.605468750007 0.82158026099205028 0.0038807091768831019
decision_type=2 2 2 2 2 2 2 2 2 2 2 2 2 2 2 2 2 2 2 2 2 2 2 2 2 2 2 2 2 2
left_child=1 6 4 7 8 9 10 -4 19 -3 17 14 -12 -14 -5 16 -11 22 21 26 -21 -9 -1 -8 -25 -10 -2 -19 -7 -30
right_child=2 5 3 11 -6 28 23 18 25 15 12 -13 13 -15 -16 -17 -18 27 -20 20 -22 -23 -24 24 -26 -27 -28 -29 29 -31
leaf_value=0.21691481172749702 0.41441248050157697 0.073158501958580299 -0.065242405558137581 -0.0040402103430746458 0.078056847801227014 0.058800355288545714 -0.18666742782220774 -0.098375711814184849 0.58202800915159025 0.19739684249166378 0.34427600517227791 0.074065749894826116 0.11583841603584731 0.30899432544630456 -0.12050640319730753 -0.026646781395301945 -0.018587096599103122 0.1132042254305939 0.0049972616857230931 -0.11062575507452521 -0.03188954962001915 -0.17547511546472958 0.62124104302663075 0.11175774986414129 -0.093083328957305311 0.025342068718188213 -0.012159670771920041 0.46960833275051261 0.13839722151389008 0.3026282248606974
leaf_weight=903 47 5212 3519 2167 2804 1129 141 2246 29 543 947 1254 943 521 1560 5175 540 3461 452 4798 3234 7493 65 1333 266 2670 2368 67 2541 353
leaf_count=903 47 5212 3519 2167 2804 1129 141 2246 29 543 947 1254 943 521 1560 5175 540 3461 452 4798 3234 7493 65 1333 266 2670 2368 67 2541 353
internal_value=0.00020922 0.0919262 -0.0637048 -0.0998867 -0.0213051 0.0558598 0.156547 -0.128601 -0.0424987 0.0296909 0.181811 -0.0208526 0.247304 0.184578 -0.0527891 -0.00651129 0.089704 0.14669 -0.150479 -0.0615708 -0.0789235 -0.157695 0.244065 0.0562602 0.0776816 0.0313235 -0.00385785 0.119973 0.13047 0.15843
internal_weight=58781 24140 34641 18691 15950 15493 8647 13710 13146 11470 6907 4981 2411 1464 3727 6258 1083 4496 10191 10447 8032 9739 968 1740 1599 2699 2415 3528 4023 2894
internal_count=58781 24140 34641 18691 15950 15493 8647 13710 13146 11470 6907 4981 2411 1464 3727 6258 1083 4496 10191 10447 8032 9739 968 1740 1599 2699 2415 3528 4023 2894
is_linear=0
shrinkage=0.05


Tree=20
num_leaves=31
num_cat=0
split_feature=19 19 19 13 20 27 20 23 5 15 19 27 45 20 47 49 13 9 13 45 8 19 46 21 24 41 3 46 45 28
split_gain=158605 37827.2 20450.2 16300.6 11152 11990.3 8095.4 7765.93 8201.65 7476.12 8872.54 12982.2 7008.18 6998.26 6945.61 6594.67 5618.39 5431.91 5555.62 5366.71 5816.61 5340.36 5150.77 4936.79 4861.53 4646.45 4182.16 3716.09 3601.05 3402.5
threshold=0.0045136448461562404 0.0030350290471687917 0.0067693064920604238 -0.018483678810298439 0.13991474360227588 -116.67292022705077 0.35620866715908056 60217.810546875007 61358.574218750007 1.0032808780670168 0.0021089792717248206 -22.661523818969723 1.0029079362539053e-06 0.62466451525688182 0.093866899609565749 0.36945411562919622 0.0058202156797051438 16641.230468750004 0.0053244393784552821 5.4986745112728396e-07 20188.939453125004 0.010646970942616464 0.011153904255479576 16731.674804687504 0.028209668584167961 0.20015098154544833 0.0036082131555303936 0.051851451396942146 5.5499882023468682e-07 0.43623432517051702
decision_type=2 2 2 2 2 2 2 2 2 2 2 2 2 2 2 2 2 2 2 2 2 2 2 2 2 2 2 2 2 2
left_child=1 9 4 24 5 -2 19 13 -9 10 17 -12 -7 15 -14 -4 -13 29 -19 20 -5 -17 -21 -6 25 27 -27 -3 -10 -1
right_child=2 3 7 6 23 12 -8 8 28 -11 11 16 14 -15 -16 21 -18 18 -20 22 -22 -23 -24 -25 -26 26 -28 -29 -30 -31
leaf_value=0.27325929306829588 0.044663885889480864 0.29423029882369667 0.09635783271848708 -0.20762305868860564 0.6241082440955299 -0.10218542998141156 0.18358745719671785 1.0750796925114547 0.28015770619878405 0.30685074448065702 0.21829062486699088 0.031120440790404547 -0.0015680297200531821 0.089271679557376804 0.70171406674716208 -0.12340564444098104 0.14414706908061645 0.15919345045242261 0.31928415915866393 0.15773855527064262 0.0021330097654785772 -0.1978080299702695 0.0227467573865534 0.027458373107934721 0.72668438109697087 0.64749056734144694 0.17914891805161129 0.029340211386481924 -0.18608858503009146 0.76949748343397539
leaf_weight=78 2080 237 292 341 35 9395 722 23 91 688 1784 3914 1415 347 36 8658 1529 4733 612 1088 10741 3343 2016 3670 51 104 88 300 76 62
leaf_count=78 2080 237 292 341 35 9395 722 23 91 688 1784 3914 1415 347 36 8658 1529 4733 612 1088 10741 3343 2016 3670 51 104 88 300 76 62
internal_value=0.00180152 0.0846217 -0.0799701 0.0319249 -0.0433812 -0.0653016 0.0202669 -0.127399 0.189887 0.146316 0.137628 0.101237 -0.0863903 -0.132168 0.0158807 -0.138419 0.0628709 0.185577 0.177524 0.0119546 -0.00432131 -0.144131 0.0700635 0.0330947 0.254743 0.221727 0.432834 0.146247 0.0679738 0.493022
internal_weight=58549 29088 29461 15688 16631 12926 14908 12830 190 13400 12712 7227 10846 12640 1451 12293 5443 5485 5345 14186 11082 12001 3104 3705 780 729 192 537 167 140
internal_count=58549 29088 29461 15688 16631 12926 14908 12830 190 13400 12712 7227 10846 12640 1451 12293 5443 5485 5345 14186 11082 12001 3104 3705 780 729 192 537 167 140
is_linear=0
shrinkage=0.05


Tree=21
num_leaves=31
num_cat=0
split_feature=19 19 19 13 20 40 13 40 11 10 19 13 23 21 43 13 13 14 40 14 3 47 23 12 11 47 47 15 41 29
split_gain=143141 34139.1 18470.9 14711.3 10359.7 9456.29 9328.94 8085.58 7063.68 7057.34 8545.81 6977.14 6764.78 7194.25 6293.08 6212.22 8959.61 5312.57 5250.37 5216.47 5176.62 4893.3 4866.85 4812.61 4778.1 4641.81 4547.01 4489.55 4166.73 4083.42
threshold=0.0045136448461562404 0.0030350290471687917 0.0069302592892199763 -0.018483678810298439 0.32075372338294988 1.5969676375389101 -0.019501745700836178 1.5357795953750613 19339.336914062504 0.0039768009446561345 0.0021438471740111713 -0.0081737581640481932 31473.164062500004 28354.845703125004 0.014360832050442697 0.013640969991683962 -0.0043912127148360005 -0.0006299450178630649 0.98619207739830028 -0.0010145462001673875 0.0040986246895045051 0.014114174991846086 60217.810546875007 38610.732421875007 18966.580078125004 0.018750829622149471 0.011231730226427318 0.99038004875183117 0.20015098154544833 -0.61671951413154591
decision_type=2 2 2 2 2 2 2 2 2 2 2 2 2 2 2 2 2 2 2 2 2 2 2 2 2 2 2 2 2 2
left_child=1 9 4 27 6 20 17 15 -6 10 18 25 13 -8 -7 16 -5 24 26 -13 -4 -14 -22 -17 -2 -12 -1 -3 -29 -11
right_child=2 3 5 7 8 14 12 -9 -10 29 11 19 21 -15 -16 23 -18 -19 -20 -21 22 -23 -24 -25 -26 -27 -28 28 -30 -31
leaf_value=0.13928278500744523 0.587792818759441 0.84178889513015742 -0.010756035729581503 0.056505285596845395 0.55728437159355593 0.19848973315924273 -0.049963783214381698 0.18164939005668845 0.063579787146493788 0.43341091471312221 0.16624720584289726 -0.12459746486061572 -0.006852973706485097 0.10914618441991944 -0.057338240139492569 0.15049936311405515 -0.036624609787151839 -0.22164172230812607 0.0687709566123339 0.08077932085077516 -0.15263213118205637 -0.10455699201109898 0.15185802227124237 0.015865671776868855 0.060264859220054395 0.467655341500958 0.23941415498859275 0.14791597636544318 0.41615087159966335 0.2054777714302789
leaf_weight=1981 44 30 731 3910 77 308 3052 729 1226 269 933 328 1507 926 1095 1263 7607 167 972 5389 9875 8564 133 1399 1756 148 2651 554 196 729
leaf_count=1981 44 30 731 3910 77 308 3052 729 1226 269 933 328 1507 926 1095 1263 7607 167 972 5389 9875 8564 133 1399 1756 148 2651 554 196 729
internal_value=0.00171145 0.0803906 -0.0759716 0.0303287 -0.0428223 -0.123255 -0.0538524 0.0192535 0.092755 0.139 0.128707 0.0910229 -0.0681311 -0.0129261 -0.00117643 0.0109041 -0.00500718 0.0481311 0.17442 0.0689963 -0.139204 -0.0899368 -0.148586 0.0797433 0.07316 0.207513 0.19659 0.242006 0.218015 0.266915
internal_weight=58549 29088 29461 15688 17319 12142 16016 14908 1303 13400 12402 6798 14049 3978 1403 14179 11517 1967 5604 5717 10739 10071 10008 2662 1800 1081 4632 780 750 998
internal_count=58549 29088 29461 15688 17319 12142 16016 14908 1303 13400 12402 6798 14049 3978 1403 14179 11517 1967 5604 5717 10739 10071 10008 2662 1800 1081 4632 780 750 998
is_linear=0
shrinkage=0.05


Tree=22
num_leaves=31
num_cat=0
split_feature=18 5 18 18 11 40 13 12 21 13 40 41 53 18 9 40 27 13 31 54 13 31 18 54 36 27 13 18 27 13
split_gain=127744 18180.7 16514.7 12908.7 12100.4 10213.4 9519.89 7571.35 7111.62 6970.97 6784.02 6424 6019.82 5999.6 5972.52 5590.47 5105.27 6924.45 7130.65 4902.69 4770.25 4714.45 4508.34 4410.29 4365.77 4195.91 4529.08 4007.94 3944.93 3816.29
threshold=154.75683593750003 38662.808593750007 55.335588455200202 241.09724426269534 26869.425781250004 1.5223000049591067 0.063740674406290068 57702.593750000007 16637.036132812504 -0.0034055309370160099 0.25709502398967748 0.35966095328330999 3.634628534317017 218.76855468750003 26843.811523437504 1.9263994693756106 4.4539716243743905 0.004828701028600336 23.880909919738773 7.441225246788826 0.032063821330666549 59.670526504516609 45.939382553100593 7.337540258460078 2441.685913085938 -99.74694442749022 -0.0041035213507711879 498.48898315429693 -383.45809936523432 0.013053845614194872
decision_type=2 2 2 2 2 2 2 2 2 2 2 2 2 2 2 2 2 2 2 2 2 2 2 2 2 2 2 2 2 2
left_child=2 5 16 9 6 13 8 11 19 21 -6 27 14 25 -12 -10 17 18 -1 -4 -13 -3 -18 24 -19 26 -2 -5 -7 -11
right_child=1 3 4 7 10 28 -8 -9 15 29 12 20 -14 -15 -16 -17 22 23 -20 -21 -22 -23 -24 -25 -26 -27 -28 -29 -30 -31
leaf_value=0.29072997932845174 -0.00097729699834474292 0.033016462072719438 0.46725316944842538 -0.0042800753886176549 0.49122830993870159 -0.27337513031948985 1.013685550292333 0.0048190097877886737 0.0059984090603791701 -0.053458651683798354 0.56411036389970015 -0.13721424542531976 0.17058734176765528 -0.17274725564624879 0.071782989110345016 0.36783538395883864 0.27767022415649101 0.50628897347620561 0.078965978105041773 -0.064541385226672701 -0.029916862394385665 0.17902762743278097 0.12524823105283034 0.62603857787670913 -0.28923208555754493 -0.11463906206962604 0.66087167660395307 -0.14931900348558744 0.035604601537312174 0.035220152213811105
leaf_weight=456 606 2103 144 2526 107 113 24 2560 9213 3752 62 5760 1984 5490 9578 108 1270 35 3100 62 1263 750 785 108 34 2945 27 587 1204 1793
leaf_count=456 606 2103 144 2526 107 113 24 2560 9213 3752 62 5760 1984 5490 9578 108 1270 35 3100 62 1263 750 785 108 34 2945 27 587 1204 1793
internal_value=0.00162587 -0.0668621 0.0812688 -0.0402004 0.0609022 -0.121017 0.0191185 -0.072012 0.016613 0.00789202 0.0949211 -0.0914168 0.091273 -0.139914 0.0749494 0.0101909 0.156155 0.121314 0.106121 0.307198 -0.117918 0.0714 0.219446 0.426545 0.114293 -0.0895363 0.0272532 -0.0316292 0.00909381 -0.024784
internal_weight=58549 31479 27070 21094 21282 10385 9551 12696 9527 8398 11731 10136 11624 9068 9640 9321 5788 3733 3556 206 7023 2853 2055 177 69 3578 633 3113 1317 5545
internal_count=58549 31479 27070 21094 21282 10385 9551 12696 9527 8398 11731 10136 11624 9068 9640 9321 5788 3733 3556 206 7023 2853 2055 177 69 3578 633 3113 1317 5545
is_linear=0
shrinkage=0.05


Tree=23
num_leaves=31
num_cat=0
split_feature=19 19 19 40 23 40 45 40 27 27 14 43 27 19 26 40 19 27 14 45 36 12 22 8 45 46 16 27 20 3
split_gain=117930 26603 17027.6 9393.68 10981.3 9332.62 7572.2 7168.9 8920.56 6930.04 6571.17 6248.25 5944.91 8951.31 7039.48 6288.1 5857.8 10350.1 6103.6 5230.89 5090.63 4965.79 4860.71 4675.57 4651.14 4582.23 4569.45 4396.85 4324.83 3969.4
threshold=0.0044012868311256179 0.0029388585826382045 0.0060322366189211616 1.1142029762268069 16652.304687500004 1.5357795953750613 9.0632337901297443e-07 1.5357795953750613 -33.732133865356438 -116.67292022705077 0.00013793050311505797 0.0097271408885717409 -21.158285140991207 0.0020762857748195533 30.799186706542972 0.91939726471900951 0.010646970942616464 -128.53998565673825 -0.0018634165171533821 1.2209305566557307e-07 4444.7548828125009 19143.211914062504 19165.507812500004 39073.240234375007 4.1928319660655694e-07 0.0054561346769332894 35.723962783813484 46.272192001342781 0.11441700905561449 0.0023454853799194102
decision_type=2 2 2 2 2 2 2 2 2 2 2 2 2 2 2 2 2 2 2 2 2 2 2 2 2 2 2 2 2 2
left_child=1 12 3 9 -5 16 7 8 10 -2 -3 -6 22 15 25 -14 17 18 -4 -17 -19 -8 24 -16 -1 -15 -13 -10 29 -11
right_child=2 6 5 4 11 -7 21 -9 27 28 -12 26 13 14 23 19 -18 20 -20 -21 -22 -23 -24 -25 -26 -27 -28 -29 -30 -31
leaf_value=-0.3410810704548638 0.061029659829464379 0.12020570595963796 0.063260092527433573 0.64770208597183232 -0.041678483949532524 -0.005602639699075331 -0.048593818446486539 0.19542648950582697 -0.031734322474315041 0.069724005699138766 -0.044020272485533578 0.39072005671582055 0.19581242994744449 0.30017494531466238 0.25110885466951111 -0.16363194780512935 -0.17677728854510741 -0.16648565837466467 -0.083093916479043614 0.11209158760825511 -0.090328007449533718 0.24650294792560323 0.22450823649072477 0.069027789375519302 0.18692424015684442 0.025467002973049296 0.063667522886990693 0.035436069886758889 0.021090377517624034 -0.093890326106721878
leaf_weight=77 1157 2806 1319 72 1940 2283 184 583 6579 393 778 112 3650 158 753 210 2986 4037 1549 951 4807 633 2082 663 91 3869 2300 3869 1125 6533
leaf_count=77 1157 2806 1319 72 1940 2283 184 583 6579 393 778 112 3650 158 753 210 2986 4037 1549 951 4807 633 2082 663 91 3869 2300 3869 1125 6533
internal_value=0.00154458 0.0758281 -0.0662431 -0.0246238 0.0352564 -0.0996543 0.0319077 0.0236268 0.0164888 -0.0533934 0.0845562 0.025124 0.130033 0.113884 0.0699632 0.163573 -0.114263 -0.0983249 -0.0157854 0.0622191 -0.125092 0.180043 0.203632 0.165855 -0.0550782 0.0362452 0.078854 -0.00686045 -0.069837 -0.0846064
internal_weight=58549 27936 30613 13632 4424 16981 15432 14615 14032 9208 3584 4352 12504 10254 5443 4811 14698 11712 2868 1161 8844 817 2250 1416 168 4027 2412 10448 8051 6926
internal_count=58549 27936 30613 13632 4424 16981 15432 14615 14032 9208 3584 4352 12504 10254 5443 4811 14698 11712 2868 1161 8844 817 2250 1416 168 4027 2412 10448 8051 6926
is_linear=0
shrinkage=0.05


Tree=24
num_leaves=31
num_cat=0
split_feature=18 47 18 9 26 23 27 18 23 47 18 14 46 45 13 47 14 13 46 35 27 13 40 5 14 8 13 54 31 13
split_gain=105598 15698.2 13394.3 12512.7 10127.5 10382.7 8014.47 8672.04 7327.62 8262.73 7112.39 6785.14 8431.8 6841.87 6673.14 5882.43 8320.5 5868.34 5852.63 5361.71 5336.2 5280.69 5088.62 4721.05 4707.89 6990.81 7445.21 4649.53 4762.01 5142.53
threshold=154.75683593750003 0.019484428688883785 55.335588455200202 58691.546875000007 55.211742401123054 21522.757812500004 -24.309257507324215 79.489189147949233 16547.551757812504 0.019683129154145721 231.71693420410159 0.00030890431662555789 0.047865794971585281 1.4958086325123079e-07 0.063740674406290068 0.035754330456256873 0.00098001072183251403 0.030136774294078354 0.018212537281215194 0.31824420392513281 -48.657487869262688 -0.013654970563948153 1.9263994693756106 38762.208984375007 -0.0011296308948658405 20259.162109375004 -0.0036738956114277239 7.4091645718686596 24.192996978759769 0.0076799807138741025
decision_type=2 2 2 2 2 2 2 2 2 2 2 2 2 2 2 2 2 2 2 2 2 2 2 2 2 2 2 2 2 2
left_child=2 11 24 10 5 8 7 -7 9 -4 -3 12 13 -2 15 16 -6 -17 -10 -12 -5 -8 -15 -21 25 -1 -27 28 -26 -30
right_child=1 3 4 20 14 6 21 -9 18 -11 19 -13 -14 22 -16 17 -18 -19 -20 23 -22 -23 -24 -25 27 26 -28 -29 29 -31
leaf_value=-0.2324655812289288 0.39305889882522527 -0.056210867029399182 0.43906360444836107 0.2029630127273738 0.12612612647369012 0.27009162085976479 0.31513900177779075 0.085186001793127242 0.03298285753994127 -0.12443617311261951 0.060148737539242186 -0.12528331637948772 -0.053697561773480132 0.032781097528357277 0.96223149001598363 0.011412907387950927 0.37262732432515649 0.21200804133551443 -0.087092164238013414 -0.16674106063888952 -0.0053120295517629073 0.029566489652690948 0.57283970105715776 -0.10195716775481085 0.30563871422147199 0.22825949112016267 -0.41286307742010875 0.035235860010607349 0.14053390254939635 0.38827719583033443
leaf_weight=201 139 6973 171 376 1290 772 165 3550 1645 105 404 1097 3466 5014 24 1384 466 495 2649 4362 1689 8566 44 7915 601 311 53 690 3710 222
leaf_count=201 139 6973 171 376 1290 772 165 3550 1645 105 404 1097 3466 5014 24 1384 466 495 2649 4362 1689 8566 44 7915 601 311 53 690 3710 222
internal_value=0.00146735 -0.0608018 0.0738785 -0.0844713 0.0555366 0.0398201 0.0625286 0.118214 -0.0250408 0.224689 -0.0967729 -0.00812981 0.00670539 0.0469895 0.131233 0.125746 0.191542 0.0642573 -0.0410923 -0.119077 0.0326112 0.0349633 0.0374791 -0.124975 0.14132 0.00421483 0.134909 0.156152 0.174557 0.154521
internal_weight=58549 31479 27070 21719 21282 17623 13053 4322 4570 276 19654 9760 8663 5197 3659 3635 1756 1879 4294 12681 2065 8731 5058 12277 5788 565 364 5223 4533 3932
internal_count=58549 31479 27070 21719 21282 17623 13053 4322 4570 276 19654 9760 8663 5197 3659 3635 1756 1879 4294 12681 2065 8731 5058 12277 5788 565 364 5223 4533 3932
is_linear=0
shrinkage=0.05


Tree=25
num_leaves=31
num_cat=0
split_feature=19 19 13 40 3 14 13 14 13 24 27 19 24 40 19 13 14 13 13 16 47 12 41 28 6 22 23 24 23 11
split_gain=92848.5 25932.8 14464.6 12784.9 10787.8 7353.33 7307.15 7173.01 7410.88 7122.52 6841.24 8809.64 11533.2 7456.01 6321.97 6763.28 6190.38 5891.68 5453.63 5417.68 4998.73 4499.15 4459.01 4422.51 4392.59 4056.1 4610.98 5200.51 3857.87 4423.97
threshold=0.0048208080697804698 0.0032137698726728563 -0.015417246147990225 1.5824159383773806 0.0043594131711870441 -0.0008669924282003193 0.016557981260120872 -2.6868807253777046e-05 -0.00048648171650711442 0.021561888046562675 -21.158285140991207 0.001875995774753392 0.0095201693475246447 0.9779479205608369 0.0080436225980520266 -0.042685629799962037 0.002059202292002738 0.0072921423707157382 0.0087196333333849924 72.950012207031264 0.013975056353956463 19789.771484375004 0.19660215079784396 24.972817420959476 40101.857421875007 18387.267578125004 17006.551757812504 0.030179098248481754 19095.633789062504 19339.336914062504
decision_type=2 2 2 2 2 2 2 2 2 2 2 2 2 2 2 2 2 2 2 2 2 2 2 2 2 2 2 2 2 2
left_child=1 10 5 4 -2 9 7 8 -4 22 -1 13 18 20 15 -6 -14 -9 -13 21 -12 -8 -3 -11 -21 26 27 -5 29 -16
right_child=3 2 6 25 14 -7 19 17 -10 23 11 12 16 -15 28 -17 -18 -19 -20 24 -22 -23 -24 -25 -26 -27 -28 -29 -30 -31
leaf_value=0.17168417778860892 -0.022341757207450644 0.075561163002379639 0.056217418772831311 0.57026216298607846 0.18309597635945801 -0.09742840447028478 -0.2379333270741488 -0.090218270956542196 -0.066945430637248518 0.54248800542697595 0.13355412594404489 -0.00085675677500573154 0.12894898946175179 -0.00068353075505227083 -0.064395262112954696 -0.08253052056011434 0.50525325490161777 0.0045157412947104507 0.12959289733098825 0.33956304650541536 0.26610244187463067 0.062368722996011906 0.30221800798897713 -0.013636986530104348 0.035344849372968862 0.022084976739691026 0.81546611873542563 -0.25060354512791305 -0.14534310526628683 0.40966773995314726
leaf_weight=3024 5967 645 4638 35 245 225 134 3909 1658 212 1766 4895 2645 645 213 10948 114 2829 958 316 1191 1802 327 43 190 2539 34 43 6589 64
leaf_count=3024 5967 645 4638 35 245 225 134 3909 1658 212 1766 4895 2645 645 213 10948 114 2829 958 316 1191 1802 327 43 190 2539 34 43 6589 64
internal_value=-0.000163147 0.0570347 0.0144398 -0.0691299 -0.0806277 0.165332 0.000282728 -0.0145886 0.0237835 0.213515 0.104354 0.0876837 0.0602212 0.153344 -0.0998864 -0.0767163 0.144498 -0.0504435 0.0204948 0.0796572 0.186941 0.0415834 0.151813 0.44871 0.225331 0.0350746 0.329545 0.117734 -0.137658 0.0451355
internal_weight=58843 32166 16928 26677 24026 1452 15476 13034 6296 1227 15238 12214 8612 3602 18059 11193 2759 6738 5853 2442 2957 1936 972 255 506 2651 112 78 6866 277
internal_count=58843 32166 16928 26677 24026 1452 15476 13034 6296 1227 15238 12214 8612 3602 18059 11193 2759 6738 5853 2442 2957 1936 972 255 506 2651 112 78 6866 277
is_linear=0
shrinkage=0.05


Tree=26
num_leaves=31
num_cat=0
split_feature=19 19 19 13 20 45 13 34 47 13 14 3 27 5 47 14 13 14 45 20 13 45 47 28 14 22 14 43 9 5
split_gain=84392.9 21081.7 10084.8 12669.3 8093.48 7600.97 7509.45 8163.43 7457.72 7219.55 7297.52 7058.17 9439.92 6824.11 6325.42 6098.41 5564.31 5211.29 5088.89 4962.57 4811.71 4740.04 5160.95 4681.42 4535.78 4284.18 4252.84 4069.51 3980.85 5469.05
threshold=0.0037009357474744324 0.0053545108530670413 0.0022652614861726765 -0.0068685032892972222 0.33119949698448187 8.7596376374676776e-07 0.012228979263454677 0.0013364553451538088 0.018750829622149471 -0.0058795146178454152 -0.00022333800734486428 0.0072506717406213292 -133.12254333496091 39092.626953125007 0.034016929566860206 -0.0015230399440042672 0.032063821330666549 -0.00020948667952325192 9.5196102734007592e-07 0.031458571553230293 0.017666853033006195 9.5699707713947659e-08 0.01424494478851557 13.123706817626955 0.0021932212403044109 46224.619140625007 -0.0019026855006814001 0.00135889946250245 16641.230468750004 16784.915039062504
decision_type=2 2 2 2 2 2 2 2 2 2 2 2 2 2 2 2 2 2 2 2 2 2 2 2 2 2 2 2 2 2
left_child=2 5 21 8 11 9 15 -8 17 10 14 12 26 -9 -2 -5 -7 -4 -19 -14 -11 22 27 -10 -17 -12 -3 -1 -23 -30
right_child=1 4 3 6 -6 16 7 13 23 20 25 -13 19 -15 -16 24 -18 18 -20 -21 -22 28 -24 -25 -26 -27 -28 -29 29 -31
leaf_value=0.14026382786564923 0.059154934699198115 0.10014915526297828 0.1471171505091543 -0.28875408421075088 0.025933285345464747 0.073859393083821751 -0.010681021763123348 0.31563534739920324 0.17196018926558956 -0.054728814120777305 -0.21446391524578212 -0.1199134310342235 -0.1117027197141337 0.064442410433404554 0.52009348371311237 0.024269015840258323 0.46657082546845469 -0.1368643913876868 0.65374067181890672 -0.036116512612183377 0.030385689724965637 0.38266453815934565 0.21039382773015999 0.51719842357202794 -0.32858514965552355 0.030563531453382826 -0.030515969821003769 -0.29500581646551854 -0.23456029278815402 0.14198398638537221
leaf_weight=76 3601 1087 2091 162 1792 1785 668 646 186 7863 400 8420 5803 465 76 9064 95 272 22 3470 2105 168 139 208 92 322 1458 183 98 6026
leaf_count=76 3601 1087 2091 162 1792 1785 668 646 186 7863 400 8420 5803 465 76 9064 95 272 22 3470 2105 168 139 208 92 322 1458 183 98 6026
internal_value=-0.000154989 -0.0440466 0.0815351 0.0572237 -0.075913 -0.000837547 0.0333151 0.127449 0.152695 -0.0132088 0.0401455 -0.0849311 -0.0600072 0.210501 0.0686821 0.015343 0.0937039 0.119403 -0.0777035 -0.083418 -0.0367547 0.13196 -0.0353801 0.354218 0.0207235 -0.105186 0.0252927 -0.167282 0.142545 0.135958
internal_weight=58843 38277 20566 13876 22030 16247 11097 1779 2779 14367 4399 20238 11818 1111 3677 9318 1880 2385 294 9273 9968 6690 398 394 9156 722 2545 259 6292 6124
internal_count=58843 38277 20566 13876 22030 16247 11097 1779 2779 14367 4399 20238 11818 1111 3677 9318 1880 2385 294 9273 9968 6690 398 394 9156 722 2545 259 6292 6124
is_linear=0
shrinkage=0.05


Tree=27
num_leaves=31
num_cat=0
split_feature=18 3 5 16 40 54 47 23 5 27 14 40 54 21 3 21 21 18 13 13 14 20 18 47 13 24 27 13 13 8
split_gain=73434.7 15250.4 11277.3 7731.88 7441.7 6956.54 5804.21 5386.32 6477.42 5284.64 5499.5 4661.74 4633.15 4547.76 4286.94 4207.31 4273.07 4156.78 4092.65 3968.39 3795.38 3762.71 5348.42 4994.75 4136.03 3758.96 4252.81 3602.51 3536.4 3448.94
threshold=174.55803680419925 0.0025340580614283685 38762.208984375007 69.084495544433608 1.2692950963974001 7.1606837244334542 0.009846439119428398 29665.635742187504 30731.512695312504 -57.619056701660149 0.00089647813001647602 1.0073963999748232 7.6296187460465097 32833.435546875007 0.0032356964657083158 21776.983398437504 20571.794921875004 218.76855468750003 -0.038550188764929764 -0.0034055309370160099 0.00098001072183251403 -0.011589173227548598 102.91343688964845 0.021268602460622791 -0.0060340589843690387 0.010642623994499447 -13.970633983612059 -0.035370877012610429 0.016212660819292072 36710.179687500007
decision_type=2 2 2 2 2 2 2 2 2 2 2 2 2 2 2 2 2 2 2 2 2 2 2 2 2 2 2 2 2 2
left_child=1 12 4 6 -2 19 7 18 -9 10 14 28 21 -6 -7 16 -8 -15 -3 -4 29 22 23 -1 -24 26 -23 -17 -11 -5
right_child=2 3 5 20 13 9 15 8 -10 11 -12 -13 -14 17 -16 27 -18 -19 -20 -21 -22 25 24 -25 -26 -27 -28 -29 -30 -31
leaf_value=0.076148966085360092 -0.12850097479856787 0.33743645536556549 0.138349130088427 0.01715097811436167 0.059372478520159561 0.12533147224249727 -0.010102935811306193 0.48535331054142228 0.11444489574495609 -0.12341733722246187 -0.16985398676610675 -0.029753330567487402 -0.13245181089859795 0.11311909674367314 -0.011758899795732273 0.60116484864399988 -0.12450966824584486 -0.1305645164902508 0.012126683366611957 -0.00095769972154665295 0.20053925385970311 0.21400149881454267 0.14088575621969709 0.1785468455422794 -0.033418172196623151 0.21120373639301074 0.076121076668088677 0.0116755309435971 -0.044958774628077125 0.19377803690831399
leaf_weight=4864 6994 101 767 1067 953 643 2240 135 919 4102 496 4597 220 213 5041 26 1284 981 2262 1533 768 726 441 1577 1491 1217 2435 8167 2210 373
leaf_count=4864 6994 101 767 1067 953 643 2240 135 919 4102 496 4597 220 213 5041 26 1284 981 2262 1533 768 726 441 1577 1491 1217 2435 8167 2210 373
internal_value=-0.00014724 0.0540416 -0.0577226 0.0233702 -0.103505 -0.0361382 0.010618 0.067957 0.161952 -0.0471256 -0.0101838 -0.0680532 0.0950487 -0.0220808 0.00374939 -0.00610367 -0.051788 -0.0870933 0.0260312 0.0454981 0.110776 0.0989739 0.0793337 0.10122 0.00636859 0.136536 0.107789 0.0135462 -0.0959469 0.0629023
internal_weight=58843 30313 28530 17342 9141 19389 15134 3417 1054 17089 6180 10909 12971 2147 5684 11717 3524 1194 2363 2300 2208 12751 8373 6441 1932 4378 3161 8193 6312 1440
internal_count=58843 30313 28530 17342 9141 19389 15134 3417 1054 17089 6180 10909 12971 2147 5684 11717 3524 1194 2363 2300 2208 12751 8373 6441 1932 4378 3161 8193 6312 1440
is_linear=0
shrinkage=0.05


Tree=28
num_leaves=31
num_cat=0
split_feature=19 19 40 19 13 16 47 36 40 54 13 13 14 13 35 19 13 28 3 13 29 41 13 47 47 23 14 54 18 20
split_gain=70103.7 18980.2 10049.1 7764.06 12084 7865.66 7398.89 6727.31 6075.59 5728.5 6066.54 5391.93 5703.44 6820.3 5123.89 4815.28 5088.82 4774.58 4692.64 4562.18 4488.67 4455.21 6621.12 7072.31 4980.09 4054.1 3999.49 4050.43 3915.35 3673.03
threshold=0.0035908045247197156 0.0053545108530670413 1.5824159383773806 0.0022652614861726765 -0.0060340589843690387 72.177680969238295 0.016504911705851558 4063.0402832031255 0.98619207739830028 7.5905087577906345 0.009144418407231571 0.032063821330666549 -0.00036442228883970523 0.0074820176232606181 0.42774090170860296 0.0087080239318311232 -0.029349744319915768 13.123706817626955 0.0030251269927248363 -0.0032649162458255883 -3.2983800172805782 0.80736172199249279 0.0093607995659112948 0.029149370267987255 0.041302504017949111 19095.633789062504 -0.00020948667952325192 7.3501944850196024 69.078613281250014 0.037871973589062698
decision_type=2 2 2 2 2 2 2 2 2 2 2 2 2 2 2 2 2 2 2 2 2 2 2 2 2 2 2 2 2 2
left_child=3 7 14 8 6 9 26 18 21 10 -6 12 19 -14 -3 16 -16 -8 29 -9 -13 22 23 -1 -23 -17 27 -5 -24 -2
right_child=1 2 -4 4 5 -7 17 11 -10 -11 -12 20 13 -15 15 25 -18 -19 -20 -21 -22 24 28 -25 -26 -27 -28 -29 -30 -31
leaf_value=0.13315118549376512 0.0016528881572827313 -0.008970161929624498 0.028395190451214594 0.17864494698827132 -0.00090824732611085787 0.19434889857251725 0.16111409754004805 0.1230043732496702 0.023474003879973077 -0.34061094529188435 0.097705066832003307 0.66497456822883005 -0.077691009818875389 0.053773831509199635 0.035592727996230741 0.08650247048370649 -0.082469830794800136 0.44487057640264605 -0.04650547492189902 -0.054269300552997446 0.15548163258129419 0.38241904478752298 0.63058846875374186 -0.19239048175083076 -0.089564673847226953 -0.13931162938373787 -0.056111852232612919 0.021247780510568866 0.062548169355059788 0.1424601357726091
leaf_weight=4682 2824 2196 2352 1362 7095 666 298 2008 1285 111 1999 55 1809 2170 993 207 11288 295 7315 443 202 337 103 173 67 4994 333 584 43 554
leaf_count=4682 2824 2196 2352 1362 7095 666 298 2008 1285 111 1999 55 1809 2170 993 207 11288 295 7315 443 202 337 103 173 67 4994 333 584 43 554
internal_value=-0.000139878 -0.0384629 -0.069283 0.077579 0.0546797 0.0284163 0.144947 0.000603088 0.121197 0.0164107 0.0207685 0.03994 0.0309639 -0.00599493 -0.080958 -0.0900007 -0.0729237 0.302275 -0.0239967 0.0909635 0.264517 0.14443 0.131528 0.121551 0.304145 -0.130324 0.10401 0.13141 0.463289 0.0247456
internal_weight=58843 39410 22030 19433 12743 9871 2872 17380 6690 9205 9094 6687 6430 3979 19678 17482 12281 593 10693 2451 257 5405 5001 4855 404 5201 2279 1946 146 3378
internal_count=58843 39410 22030 19433 12743 9871 2872 17380 6690 9205 9094 6687 6430 3979 19678 17482 12281 593 10693 2451 257 5405 5001 4855 404 5201 2279 1946 146 3378
is_linear=0
shrinkage=0.05


Tree=29
num_leaves=31
num_cat=0
split_feature=19 19 13 3 20 20 54 14 24 13 45 14 13 28 19 13 24 11 26 2 45 41 12 31 1 47 14 28 53 41
split_gain=63646.7 18457.5 11747.5 9027.2 7427.5 6890.68 6845.85 6323.63 6423.52 5910.85 5900.04 5667.3 5944.57 5407.05 6346.48 5216.58 4812.17 4802.9 4647.97 4213.97 4103.54 3863.62 3810.67 3411.06 3537.82 3370.36 5584.95 3310.7 2976.76 2826.88
threshold=0.0048208080697804698 0.0032137698726728563 -0.015417246147990225 0.0043594131711870441 0.33119949698448187 0.041245890781283386 7.6296187460465097 -0.0008669924282003193 0.021561888046562675 0.016557981260120872 1.4627290738644663e-06 -2.6868807253777046e-05 -0.00048648171650711442 20.992089271545414 0.0022652614861726765 0.00024187627423089 0.0081821414642035978 57333.841796875007 -22.164895057678219 0.0035597681999206547 7.6650132996292097e-07 0.19660215079784396 19789.771484375004 81.513805389404311 0.0010910630226135256 0.02411005832254887 0.00011229167648707518 -0.45673549175262446 4.5292119979858407 0.51981601119041454
decision_type=2 2 2 2 2 2 2 2 2 2 2 2 2 2 2 2 2 2 2 2 2 2 2 2 2 2 2 2 2 2
left_child=1 6 7 5 17 29 13 8 21 11 22 12 -4 14 18 -13 -16 25 -1 -10 -7 -3 -11 -15 -25 26 -5 -12 -27 -2
right_child=3 2 9 4 -6 20 -8 -9 19 10 27 15 -14 23 16 -17 -18 -19 -20 -21 -22 -23 -24 24 -26 28 -28 -29 -30 -31
leaf_value=0.2424807590050104 0.00033775542598674167 0.062379676134202838 0.048311291669890788 -0.037590227535698351 0.01945758054030601 0.011428423505961807 -0.2019969575383728 -0.09639722841150232 0.48952960949473917 -0.199018785596764 0.067765866716702788 -0.12406381718909372 -0.061996203593345511 0.29345828222594861 0.0074119013998445909 -0.021692056629703291 0.08789883865063193 0.017850698409410681 0.10449372215682012 -0.1413317414124807 0.1560362286640482 0.27336236697675759 0.072629404900620087 -0.10223923001210503 0.18837808292835073 -0.11668334722224064 -0.1793769858177261 0.80392446106388471 -0.047517107938819893 -0.079019380814786336
leaf_weight=682 2171 645 4638 4766 1931 1206 202 225 225 137 24 1647 1658 508 3394 5091 4101 1095 5803 30 827 327 2239 141 407 9692 813 42 1853 2323
leaf_count=682 2171 645 4638 4766 1931 1206 202 225 225 137 24 1647 1658 508 3394 5091 4101 1095 5803 30 827 327 2239 141 407 9692 813 42 1853 2323
internal_value=-0.000132884 0.0472237 0.0112886 -0.0572335 -0.0737873 -0.00612902 0.0871444 0.147272 0.191955 -0.00146979 0.0699193 -0.014845 0.0192627 0.0910288 0.0827881 -0.0467153 0.0514515 -0.0836701 0.119005 0.415311 0.0702531 0.133358 0.0569662 0.200124 0.113602 -0.0901619 -0.0582521 0.53623 -0.105582 -0.0406829
internal_weight=58843 32166 16928 26677 20150 6527 15238 1452 1227 15476 2442 13034 6296 15036 13980 6738 7495 18219 6485 255 2033 972 2376 1056 548 17124 5579 66 11545 4494
internal_count=58843 32166 16928 26677 20150 6527 15238 1452 1227 15476 2442 13034 6296 15036 13980 6738 7495 18219 6485 255 2033 972 2376 1056 548 17124 5579 66 11545 4494
is_linear=0
shrinkage=0.05


Tree=30
num_leaves=31
num_cat=0
split_feature=19 3 20 19 20 54 13 14 13 9 13 14 12 14 19 20 13 31 14 46 11 42 34 11 19 13 46 36 8 46
split_gain=61376.5 11926.4 9146.79 8744.13 7808.81 6798.43 6538.09 9777.36 6458.5 5802.93 5561.15 7884.29 9533.79 7535.71 5425.53 5010.1 4540.41 4515.85 4408.46 4675.66 4279.86 3991.99 6112.99 4522.67 3930.37 6450.61 3798.42 3738.62 4046.68 3560.09
threshold=0.0041756683494895705 0.0044209025800228128 0.19429562985897067 0.0032137698726728563 0.042947897687554366 7.6296187460465097 -0.0034055309370160099 0.00019064424850512299 0.0074820176232606181 18873.930664062504 0.0093607995659112948 0.00032222273875959223 39064.054687500007 0.0012246804544702174 0.0015950644155964258 0.34302043914794927 -0.015417246147990225 47.593589782714851 -0.001105156901758164 0.034712620079517371 61162.134765625007 0.0056019946932792672 -0.008571356534957884 23127.957031250004 0.010646970942616464 -0.038550188764929764 0.084629919379949584 2108.720336914063 17198.711914062504 0.018212537281215194
decision_type=2 2 2 2 2 2 2 2 2 2 2 2 2 2 2 2 2 2 2 2 2 2 2 2 2 2 2 2 2 2
left_child=3 4 20 5 26 10 7 21 15 -4 13 -12 -13 14 -1 -8 18 -17 19 -6 24 23 -23 -5 25 -3 -2 -10 -29 -15
right_child=1 2 9 6 16 -7 8 -9 27 -11 11 12 -14 29 -16 17 -18 -19 -20 -21 -22 22 -24 -25 -26 -27 -28 28 -30 -31
leaf_value=0.15401892098522554 -0.034400556021301973 0.086807368711388416 0.33495847299064119 -0.050299190511714491 0.869601442385465 -0.20337027578092204 -0.063763284911427381 -0.17226692993593004 -0.037357618109605771 -0.011782374667033796 -0.20128502883380861 0.30982513164061798 0.047809018608687685 -0.21518918548354465 0.068402886076812094 0.54232333986596626 0.03919317029914185 -0.032188083740397243 -0.058255329991088192 0.23658657862593169 0.096878753949492954 0.18304532097531129 0.013049951236466068 0.25338310995354518 -0.13884489467481351 -0.081284276692293239 0.20891310837256111 -0.28892453695750903 0.091925150506185882 0.094392974077517761
leaf_weight=2232 7311 595 124 149 32 205 3429 350 962 4485 128 893 568 319 10824 66 2739 71 119 330 330 813 1513 692 2827 14006 164 72 2230 131
leaf_count=2232 7311 595 124 149 32 205 3429 350 962 4485 128 893 568 319 10824 66 2739 71 119 330 330 813 1513 692 2827 14006 164 72 2230 131
internal_value=0.00057732 -0.0444496 -0.0652153 0.0586223 -0.00102124 0.0826312 0.0231207 0.0785083 -0.00540027 -0.0024537 0.0865153 0.174994 0.20796 0.0761057 0.0830395 -0.0519171 0.0640741 0.244584 0.205756 0.292544 -0.0815048 0.106223 0.0724679 0.19958 -0.0848825 -0.0744344 -0.0290623 0.0454205 0.0800133 -0.125066
internal_weight=58709 33062 22367 25647 10695 15300 10347 3517 6830 4609 15095 1589 1461 13506 13056 3566 3220 137 481 362 17758 3167 2326 841 17428 14601 7475 3264 2302 450
internal_count=58709 33062 22367 25647 10695 15300 10347 3517 6830 4609 15095 1589 1461 13506 13056 3566 3220 137 481 362 17758 3167 2326 841 17428 14601 7475 3264 2302 450
is_linear=0
shrinkage=0.05


Tree=31
num_leaves=31
num_cat=0
split_feature=19 11 5 54 19 49 54 13 20 13 47 46 13 12 11 20 19 13 11 9 13 19 42 45 54 20 54 11 47 32
split_gain=55392.3 10864.1 13835.2 10718.9 7891.58 6419.8 6135.58 5900.62 5847.62 5828.8 5598.61 5596.9 5018.94 6507.08 6701.84 4947.21 4946.09 5590.23 5074.35 4932.94 4842.87 5556.24 4601.83 4960.25 5388.56 4521.62 4311.12 3889.02 3796.82 3599.11
threshold=0.0041756683494895705 31060.526367187504 38432.050781250007 7.2297508824753107 0.0032137698726728563 0.60997742414474498 7.6296187460465097 -0.0034055309370160099 0.33119949698448187 0.0074820176232606181 0.019484428688883785 0.022148458287119869 0.0093607995659112948 39064.054687500007 41161.748046875007 0.0059144566766917714 0.0015950644155964258 -0.0081737581640481932 29312.836914062504 37971.201171875007 -0.042685629799962037 0.0076845781877636918 0.0056019946932792672 7.6650132996292097e-07 7.4077907827236817 0.34302043914794927 7.3179359945354419 23127.957031250004 0.040877791121602065 -0.00051093101501464833
decision_type=2 2 2 2 2 2 2 2 2 2 2 2 2 2 2 2 2 2 2 2 2 2 2 2 2 2 2 2 2 2
left_child=4 3 -3 28 6 15 12 22 -7 25 11 -4 16 19 -15 -5 18 -18 -1 -14 21 -12 27 26 -25 -9 -24 -6 -2 -27
right_child=1 2 10 5 7 8 -8 9 -10 -11 20 -13 13 14 -16 -17 17 -19 -20 -21 -22 -23 23 24 -26 29 -28 -29 -30 -31
leaf_value=0.18689704088461392 0.6246172915783621 -0.11791298067270423 0.1349492380613341 0.0057798466572840188 -0.056540696510415989 -0.04448292243066522 -0.1932017654216871 -0.060575120548892053 0.087525536131009232 0.043149467673270818 0.55466229716529614 -0.013136361877898371 0.21715697044256502 -0.30213148078676 0.11889231418465314 0.15915466542326215 0.14235121564115799 0.04389530198109598 0.020217839442486379 0.7002097994089127 -0.060566752103107337 0.037442919283699687 0.049534145838175066 0.10824884843142307 0.58111600622534754 0.5270198570090836 -0.12298073430020853 0.22251584883185102 -0.080767166086783027 0.0094668623059988022
leaf_weight=1619 93 7184 744 1182 151 5827 205 3429 980 3264 61 4481 940 118 475 947 1698 9553 636 56 11190 349 1872 244 80 59 449 721 24 78
leaf_count=1619 93 7184 744 1182 151 5827 205 3429 980 3264 61 4481 940 118 475 947 1698 9553 636 56 11190 349 1872 244 80 59 449 721 24 78
internal_value=0.000548454 -0.0422271 -0.0598271 0.00444883 0.0556912 -0.0017766 0.0784996 0.0219646 -0.0254777 -0.00513025 -0.0350254 0.00794989 0.0821895 0.166244 0.0351135 0.0740025 0.0723004 0.0587543 0.139887 0.244317 -0.0543828 0.114395 0.0745828 0.0417435 0.225006 -0.0493212 0.016161 0.174193 0.479923 0.232355
internal_weight=58709 33062 24009 9053 25647 8936 15300 10347 6807 6830 16825 5225 15095 1589 593 2129 13506 11251 2255 996 11600 410 3517 2645 324 3566 2321 872 117 137
internal_count=58709 33062 24009 9053 25647 8936 15300 10347 6807 6830 16825 5225 15095 1589 593 2129 13506 11251 2255 996 11600 410 3517 2645 324 3566 2321 872 117 137
is_linear=0
shrinkage=0.05


Tree=32
num_leaves=31
num_cat=0
split_feature=18 12 3 40 35 47 16 8 47 40 54 54 36 24 47 16 13 41 53 26 16 31 50 36 26 40 12 18 13 13
split_gain=48906.2 9011.96 8994.39 7030.71 6580.65 6301.27 5846.8 5063.71 4530.76 4262.68 5556.56 5313.25 4243.97 4123.61 4225.1 3813.94 4165.9 4391.04 4906.34 4359.89 3681.61 3938.37 3563.5 3455.89 4014.81 4633.94 3417.97 3306.97 3305.89 3122.41
threshold=171.79631805419925 57702.593750000007 0.0022361690644174819 1.8304153680801394 0.39458139240741735 0.016065798699855808 65.724876403808608 58013.519531250007 0.0069521076511591682 0.41880826652050024 7.441225246788826 7.4121420742193642 4444.7548828125009 0.018940554000437263 0.020078958012163643 29.45501804351807 0.0056480802595615396 0.64909076690673839 2.7833200693130498 -6.6654438972473136 41.254119873046882 54.972784042358406 -23.638592720031735 1317.966491699219 -94.332324981689439 0.77700632810592662 44405.753906250007 221.92312622070315 -0.0043912127148360005 0.016212660819292072
decision_type=2 2 2 2 2 2 2 2 2 2 2 2 2 2 2 2 2 2 2 2 2 2 2 2 2 2 2 2 2 2
left_child=2 3 15 4 20 -6 8 13 -4 11 -11 -10 -7 14 -3 -1 22 19 -19 -18 21 -2 -17 24 25 -9 27 -5 -24 -26
right_child=1 7 6 26 5 12 -8 23 9 10 -12 -13 -14 -15 -16 16 17 18 -20 -21 -22 -23 28 -25 29 -27 -28 -29 -30 -31
leaf_value=0.23813237021506539 0.10432707148387679 0.65352285364527773 0.082642579577940023 0.22334779234580604 -0.020395390190448306 -0.10441802048233749 0.085561546973939223 1.1334603130817413 0.04402930772783914 0.0039699063350792201 -0.14470759375745068 0.36491875463100371 -0.054510663087739247 0.076262312846771194 0.04029426325199216 0.15847194495615319 0.81009969115257263 0.049931641286804385 0.21750720433203177 0.2309830640944151 -0.0092993362878390842 0.58039937475506143 0.101802436387634 -0.016586433088746987 0.04563008654161374 0.092819762877796017 0.30209127779587253 -0.047007923157177341 0.027591632034160679 0.46108723220472436
leaf_weight=382 383 81 2037 166 5242 9898 3346 20 516 12753 661 172 7478 207 43 842 45 1044 751 117 1355 49 2139 2777 587 23 162 355 5029 49
leaf_count=382 383 81 2037 166 5242 9898 3346 20 516 12753 661 172 7478 207 43 842 45 1044 751 117 1355 49 2139 2777 587 23 162 355 5029 49
internal_value=0.000521031 -0.0458658 0.0454167 -0.0567184 -0.0611464 -0.0684443 0.025409 0.0260301 0.0129379 0.00286921 -0.00335646 0.124252 -0.0829397 0.212853 0.440871 0.0830872 0.0771449 0.142543 0.120043 0.391849 0.0312234 0.158326 0.0611669 0.00813706 0.109252 0.576839 0.101503 0.0391323 0.0497368 0.0776386
internal_weight=58709 28875 29834 25088 24405 22618 19485 3787 16139 14102 13414 688 17376 331 124 10349 9967 1957 1795 162 1787 432 8010 3456 679 43 683 521 7168 636
internal_count=58709 28875 29834 25088 24405 22618 19485 3787 16139 14102 13414 688 17376 331 124 10349 9967 1957 1795 162 1787 432 8010 3456 679 43 683 521 7168 636
is_linear=0
shrinkage=0.05


Tree=33
num_leaves=31
num_cat=0
split_feature=19 19 13 3 20 54 26 18 13 20 5 41 12 13 19 16 12 45 28 8 13 41 20 49 45 12 15 3 45 31
split_gain=46662.5 11391.9 7468.76 7176.95 7362.72 5548.3 5163.92 4531.97 4652.28 4449.5 4407.89 6040.26 5035.66 3965.81 8453 3710.97 4495.3 3441.9 3994.56 3691.61 3319.26 3140.6 3140.48 3388.92 3027.47 3007.25 2949.67 2886.79 2743.05 2564.36
