tree
version=v4
num_class=1
num_tree_per_iteration=1
label_index=0
max_feature_idx=53
objective=regression
feature_names=return_1 return_3 return_7 hl_ratio oc_ratio ma_7 ema_7 close_ma_7_diff ma_25 ema_25 close_ma_25_diff ma_99 ema_99 close_ma_99_diff ma_99_slope_5 ma_7_ma_25_ratio rsi_14 rsi_6 atr_14 atr_pct atr_change bb_upper bb_middle bb_lower bb_width bb_position macd macd_signal macd_hist macd_hist_change stoch_k stoch_d momentum_5 momentum_10 momentum_20 volume_ratio volume_ma_5 volume_change volume_spike_ratio price_volume_corr volatility_regime price_position dist_to_recent_high_20 dist_to_recent_low_20 price_in_bband_percentile bb_width_pct dist_to_high dist_to_low market_regime rebound_strength oversold_recovery bear_trap volume_price_divergence dist_to_support_atr
feature_infos=[-0.10325020551681519:0.090969204902648926] [-0.16209715604782104:0.12877571582794189] [-0.15816324949264526:0.17334640026092529] [0:0.30292358994483948] [-0.10325019806623459:0.090969562530517578] [15708.271484375:68572.5625] [15706.5732421875:68554.6484375] [-0.12768632173538208:0.10323408246040344] [15727.1396484375:68311.7421875] [15740.482421875:68129.390625] [-0.17627114057540894:0.128742516040802] [15858.0576171875:67579.1015625] [15866.1533203125:67438.5078125] [-0.22479459643363953:0.15165063738822937] [-0.01222609169781208:0.010358095169067383] [0.90913546085357666:1.0777466297149658] [0.90427130460739136:100] [0:100] [6.0502233505249023:2739.1357421875] [0.00035732059041038156:0.0756864994764328] [-0.78790581226348877:6.6615700721740723] [15774.2861328125:69898.1640625] [15721.259765625:68445.5] [15258.9287109375:67979.265625] [0.0011544453445822001:0.25932639837265015] [-0.55240923166275024:1.5494223833084106] [-1687.2138671875:1231.6492919921875] [-1505.801025390625:1106.71337890625] [-664.12481689453125:589.8560791015625] [-285.865478515625:250.72630310058594] [0:100] [1.182709813117981:98.77386474609375] [-0.16985911130905151:0.15899133682250977] [-0.18096369504928589:0.16818583011627197] [-0.20007288455963135:0.19525289535522461] [0:11.963729858398438] [308.72219848632812:76892.25] [-1:inf] [0:11.963729858398438] [-inf:inf] [0.11075783520936966:2.3082284927368164] [0:1] [0:0.27134042978286743] [0:0.28331491351127625] [-0.55240923166275024:1.5494223833084106] [4.1166529740621627e-08:1.0131614544661716e-05] [0:0.39803189039230347] [0:0.32121241092681885] [-1:1] [0:10.262325286865234] [-74.547744750976562:78.838935852050781] [0:1] [-0.96656256914138794:0.61893731355667114] [0:12.95307445526123]
tree_sizes=2718 2871 2898

Tree=0
num_leaves=31
num_cat=0
split_feature=11 46 8 24 21 27 21 11 36 26 33 35 47 6 14 11 46 15 15 11 7 23 11 28 20 30 40 26 20 25
split_gain=11747.9 3888.79 7801.81 3294.36 2948.93 2597.96 2532.46 2630.35 1611.82 1610.55 3340.83 2120.08 1596.44 1648.16 2557.63 3342.77 1371.82 1274.61 2252.11 1203.73 1180.46 1175.76 1161.09 1311.52 1153.41 1143.28 1064.8 1370.35 1041.21 1038.87
threshold=30204.433593750004 0.074727065861225142 26343.993164062504 0.012547786347568037 48180.769531250007 78.551670074462905 24906.358398437504 19120.524414062504 3994.9318847656255 22.204721450805668 0.01384931802749634 0.39893580973148351 0.10923852398991586 47537.250000000007 0.0013827575603500011 47162.652343750007 0.01972608640789986 0.98843371868133556 0.98104977607727062 27982.255859375004 0.0006192293658386917 26317.038085937504 19191.000976562504 -12.915501117706297 0.042947897687554366 44.056474685668952 0.64121064543724071 26.791170120239261 -0.23907892405986783 0.74456647038459789
decision_type=2 2 2 2 2 2 2 2 2 2 2 2 2 2 2 2 2 2 2 2 2 2 2 2 2 2 2 2 2 2
left_child=1 6 8 19 12 21 7 9 25 10 -1 -11 13 16 -15 -16 -2 18 -14 -4 -7 -5 23 -10 -19 -3 27 -9 -8 -18
right_child=4 2 3 5 -6 20 28 26 22 11 -12 -13 17 14 15 -17 29 24 -20 -21 -22 -23 -24 -25 -26 -27 -28 -29 -30 -31
leaf_value=7.3085483013922881 7.287088592780619 7.3714192604748501 7.8181507864059618 7.6267392656168953 7.2476239469463417 7.6517086923368103 7.3901926574042411 7.2916044550701598 7.6401327118327185 7.6283368787799963 7.9582049835718998 7.3706829127440363 7.2372697555519467 7.3054826997378983 7.4078982352377771 8.0312152203914842 7.2691375081557092 7.3744317308664744 7.9786343800947961 8.3417352984864586 8.1949545900024301 7.2588998867982619 7.2953822471402621 7.3355363018655879 7.2494717438604193 7.831864514865071 7.2743391831942654 7.3813752643578372 7.3257450254322913 7.231159253270306
leaf_weight=1877 10600 26 21 42 11813 20 681 1785 57 91 20 651 20 367 76 30 10977 535 21 23 20 45 586 93 282 28 7451 558 7861 2154
leaf_count=1877 10600 26 21 42 11813 20 681 1785 57 91 20 651 20 367 76 30 10977 535 21 23 20 45 586 93 282 28 7451 558 7861 2154
internal_value=7.28545 7.31443 7.41278 7.71899 7.26822 7.58982 7.30992 7.29552 7.3465 7.33983 7.3154 7.40228 7.27793 7.27555 7.36797 7.58431 7.27371 7.34495 7.61699 8.09184 7.92333 7.43648 7.32716 7.45128 7.3313 7.61017 7.28358 7.31298 7.33088 7.26291
internal_weight=58811 21936 961 171 36875 127 20975 12433 790 2639 1897 742 25062 24204 473 106 23731 858 41 44 40 87 736 150 817 54 9794 2343 8542 13131
internal_count=58811 21936 961 171 36875 127 20975 12433 790 2639 1897 742 25062 24204 473 106 23731 858 41 44 40 87 736 150 817 54 9794 2343 8542 13131
is_linear=0
shrinkage=1


Tree=1
num_leaves=31
num_cat=0
split_feature=9 46 13 21 20 36 14 21 31 31 18 41 15 41 6 23 18 23 42 40 41 26 18 46 27 5 26 36 28 1
split_gain=10468.8 3281.39 5858.63 2629.96 2208.3 2195.85 2118.09 1978.07 1973.15 2726.45 1832.6 1773.16 1488.36 2034.17 1445.92 1273.64 1212.84 1056.94 1022.18 974.568 1299.5 919.591 901.208 865.884 861.249 846.178 832.794 824.232 816.628 1354.69
threshold=30397.802734375004 0.074727065861225142 0.0017867719870992007 48180.769531250007 -0.23907892405986783 4444.7548828125009 -0.003530439804308116 24906.358398437504 54.637002944946296 31.213914871215824 51.249790191650398 0.53490254282951366 0.98843371868133556 0.68708425760269176 47413.013671875007 19231.207031250004 200.5666198730469 37625.640625000007 0.010862548835575582 0.7452356517314912 0.22725751996040347 -261.94918823242182 670.00683593750011 0.04502569884061814 -120.81107330322264 20989.685546875004 -24.801757812499996 1020.4854125976564 27.647541046142582 0.0052533745765686044
decision_type=2 2 2 2 2 2 2 2 2 2 2 2 2 2 2 2 2 2 2 2 2 2 2 2 2 2 2 2 2 2
left_child=1 4 5 10 19 18 -6 15 9 -4 17 21 13 -13 -14 -8 -5 26 25 20 -1 -12 -23 -9 -18 -3 -2 -19 29 -7
right_child=3 2 8 16 6 28 7 23 -10 -11 11 12 14 -15 -16 -17 24 27 -20 -21 -22 22 -24 -25 -26 -27 -28 -29 -30 -31
leaf_value=-0.016896623440588694 0.35261800062088744 0.2072853850091205 0.4195441937807835 -0.075862724468163112 0.49761746603509655 0.045355330751055765 0.031420407865025778 0.041264508446343225 0.20622926641142733 1.1593784444034101 0.013726142116772097 0.079988960673411699 0.00021542531891474839 0.60351400867752414 0.099122553371400121 -0.0060528244580174331 -0.055441364808108545 0.17127801967425305 0.073401142813657463 0.015753358226698055 0.12476757513816183 -0.028045704097993947 0.15868693895064867 -0.015633322319319746 -0.021360400004911444 0.54465050399303438 0.017352136048921354 0.5205745821197828 -0.042250453144869707 0.24963245308026671
leaf_weight=193 21 34 33 1640 23 525 3110 7512 33 20 1593 96 11304 23 382 8370 2438 57 38 452 1004 10871 65 734 7735 41 157 24 187 96
leaf_count=193 21 34 33 1640 23 525 3110 7512 33 20 1593 96 11304 23 382 8370 2438 57 38 452 1004 10871 65 734 7735 41 157 24 187 96
internal_value=-2.12631e-05 0.0268695 0.115076 -0.0165704 0.0227185 0.0782226 0.0180771 0.017518 0.509745 0.698727 -0.00725649 -0.00866461 0.00524013 0.181174 0.00344857 0.0040989 -0.0359607 0.125042 0.284669 0.0783057 0.101926 -0.0217659 -0.0269358 0.0361999 -0.029528 0.391712 0.056906 0.274773 0.0493508 0.0769344
internal_weight=58811 22405 1007 36406 21398 921 19749 19726 86 53 24593 24334 11805 119 11686 11480 11813 259 113 1649 1197 12529 10936 8246 10173 75 178 81 808 621
internal_count=58811 22405 1007 36406 21398 921 19749 19726 86 53 24593 24334 11805 119 11686 11480 11813 259 113 1649 1197 12529 10936 8246 10173 75 178 81 808 621
is_linear=0
shrinkage=0.05


Tree=2
num_leaves=31
num_cat=0
split_feature=11 11 11 21 43 26 12 3 35 14 41 19 47 6 14 40 18 19 8 40 18 26 41 26 19 15 1 25 34 11
split_gain=9605.92 2776.06 2509.54 2394.12 1959.37 1957.05 1919.08 1779.85 1589.82 1580.43 1554.77 1764.01 1569.63 1871.05 1381.45 2113.07 1425.51 1375.62 1134.71 1075.56 1169.23 1107.63 2098.29 1034.39 998.931 962.158 1721.77 898.455 810.445 799.976
threshold=30204.433593750004 25894.020507812504 19120.524414062504 48180.769531250007 0.019112893380224708 -4.6234076023101798 25891.364257812504 0.0030251269927248363 0.6367916762828828 -0.0049211585428565732 0.54618635773658764 0.010239070747047664 0.02411005832254887 47413.013671875007 -0.003530439804308116 0.81832194328308117 433.76310729980474 0.003918923670426012 25860.188476562504 0.67471978068351757 23.639299392700199 24.826620101928714 0.4296573549509049 22.204721450805668 0.0013154593762010338 0.98682260513305675 0.0095695257186889666 0.6648557484149934 -0.0079609155654907209 60188.125000000007
decision_type=2 2 2 2 2 2 2 2 2 2 2 2 2 2 2 2 2 2 2 2 2 2 2 2 2 2 2 2 2 2
left_child=1 2 4 10 9 8 -3 -7 -6 -1 27 12 24 -14 15 -8 18 -5 -16 21 -21 -4 -23 -11 -12 26 -13 -2 -22 -19
right_child=3 6 19 17 5 7 14 -9 -10 23 11 25 13 -15 16 -17 -18 29 -20 20 28 22 -24 -25 -26 -27 -28 -29 -30 -31
leaf_value=0.44017465164264041 -0.011495367761247037 0.43591642640531064 0.010155149497519942 -0.066512411834371607 0.12239649433555991 0.3694358794949949 0.50260746961548219 0.050392152322760599 0.52986896010460682 0.01651877867089557 0.2165944090379136 0.55065074677446058 -0.012980069453126287 0.12400547784358147 0.20675645072083429 0.056346662301156258 0.42242189931869512 -0.031410249381141481 0.042057702028734358 0.30378153118304912 0.020840784889996897 0.50475959293544292 0.063529046814940815 0.10337696210936886 0.033008687022739298 0.057387860710870466 0.01757747187758937 -0.042518433062497654 -0.017513291228268953 0.0094775076902914382
leaf_weight=24 10461 32 2360 2571 43 51 42 306 54 1884 77 28 8291 257 106 72 25 7830 7800 30 1773 28 715 419 1965 946 33 3004 6172 1412
leaf_count=24 10461 32 2360 2571 43 51 42 306 54 1884 77 28 8291 257 106 72 25 7830 7800 30 1773 28 715 419 1965 946 33 3004 6172 1412
internal_value=-2.02005e-05 0.0261796 0.0126007 -0.0156058 0.0550657 0.150082 0.0494791 0.0959698 0.349237 0.0365279 -0.00685898 0.0065602 0.000546883 -0.00886153 0.047942 0.220759 0.0454579 -0.0341627 0.0442659 0.00194032 -0.00777779 0.0269168 0.0801568 0.0323215 0.0399314 0.0697986 0.262267 -0.0184165 -0.00895423 -0.0251634
internal_weight=58811 21936 13859 36875 2781 454 8077 357 97 2327 25062 11597 10590 8548 8045 114 7931 11813 7906 11078 7975 3103 743 2303 2042 1007 61 13465 7945 9242
internal_count=58811 21936 13859 36875 2781 454 8077 357 97 2327 25062 11597 10590 8548 8045 114 7931 11813 7906 11078 7975 3103 743 2303 2042 1007 61 13465 7945 9242
is_linear=0
shrinkage=0.05


end of trees

feature_importances:
ma_99=9
macd=7
atr_14=5
bb_upper=5
price_position=5
ma_99_slope_5=4
ma_7_ma_25_ratio=4
volatility_regime=4
dist_to_high=4
ema_7=3
atr_pct=3
atr_change=3
bb_lower=3
volume_ma_5=3
return_3=2
ma_25=2
bb_position=2
macd_signal=2
macd_hist=2
stoch_d=2
volume_ratio=2
dist_to_low=2
hl_ratio=1
ma_7=1
close_ma_7_diff=1
ema_25=1
ema_99=1
close_ma_99_diff=1
bb_width=1
stoch_k=1
momentum_10=1
momentum_20=1
dist_to_recent_high_20=1
dist_to_recent_low_20=1

parameters:
[boosting: gbdt]
[objective: regression]
[metric: rmse]
[tree_learner: serial]
[device_type: cpu]
[data_sample_strategy: bagging]
[data: ]
[valid: ]
[num_iterations: 500]
[learning_rate: 0.05]
[num_leaves: 31]
[num_threads: 0]
[seed: 0]
[deterministic: 0]
[force_col_wise: 0]
[force_row_wise: 0]
[histogram_pool_size: -1]
[max_depth: 6]
[min_data_in_leaf: 20]
[min_sum_hessian_in_leaf: 0.001]
[bagging_fraction: 0.8]
[pos_bagging_fraction: 1]
[neg_bagging_fraction: 1]
[bagging_freq: 5]
[bagging_seed: 3]
[bagging_by_query: 0]
[feature_fraction: 0.8]
[feature_fraction_bynode: 1]
[feature_fraction_seed: 2]
[extra_trees: 0]
[extra_seed: 6]
[early_stopping_round: 0]
[early_stopping_min_delta: 0]
[first_metric_only: 0]
[max_delta_step: 0]
[lambda_l1: 0]
[lambda_l2: 0]
[linear_lambda: 0]
[min_gain_to_split: 0]
[drop_rate: 0.1]
[max_drop: 50]
[skip_drop: 0.5]
[xgboost_dart_mode: 0]
[uniform_drop: 0]
[drop_seed: 4]
[top_rate: 0.2]
[other_rate: 0.1]
[min_data_per_group: 100]
[max_cat_threshold: 32]
[cat_l2: 10]
[cat_smooth: 10]
[max_cat_to_onehot: 4]
[top_k: 20]
[monotone_constraints: ]
[monotone_constraints_method: basic]
[monotone_penalty: 0]
[feature_contri: ]
[forcedsplits_filename: ]
[refit_decay_rate: 0.9]
[cegb_tradeoff: 1]
[cegb_penalty_split: 0]
[cegb_penalty_feature_lazy: ]
[cegb_penalty_feature_coupled: ]
[path_smooth: 0]
[interaction_constraints: ]
[verbosity: -1]
[saved_feature_importance_type: 0]
[use_quantized_grad: 0]
[num_grad_quant_bins: 4]
[quant_train_renew_leaf: 0]
[stochastic_rounding: 1]
[linear_tree: 0]
[max_bin: 255]
[max_bin_by_feature: ]
[min_data_in_bin: 3]
[bin_construct_sample_cnt: 200000]
[data_random_seed: 1]
[is_enable_sparse: 1]
[enable_bundle: 1]
[use_missing: 1]
[zero_as_missing: 0]
[feature_pre_filter: 1]
[pre_partition: 0]
[two_round: 0]
[header: 0]
[label_column: ]
[weight_column: ]
[group_column: ]
[ignore_column: ]
[categorical_feature: ]
[forcedbins_filename: ]
[precise_float_parser: 0]
[parser_config_file: ]
[objective_seed: 5]
[num_class: 1]
[is_unbalance: 0]
[scale_pos_weight: 1]
[sigmoid: 1]
[boost_from_average: 1]
[reg_sqrt: 0]
[alpha: 0.9]
[fair_c: 1]
[poisson_max_delta_step: 0.7]
[tweedie_variance_power: 1.5]
[lambdarank_truncation_level: 30]
[lambdarank_norm: 1]
[label_gain: ]
[lambdarank_position_bias_regularization: 0]
[eval_at: ]
[multi_error_top_k: 1]
[auc_mu_weights: ]
[num_machines: 1]
[local_listen_port: 12400]
[time_out: 120]
[machine_list_filename: ]
[machines: ]
[gpu_platform_id: -1]
[gpu_device_id: -1]
[gpu_use_dp: 0]
[num_gpu: 1]

end of parameters

pandas_categorical:[]
